digraph Tree {
node [shape=box] ;
0 [label="X[230] <= 0.002\ngini = 0.9\nsamples = 5000\nvalue = [500, 500, 500, 500, 500, 500, 500, 500, 500, 500]"] ;
1 [label="X[111] <= 0.08\ngini = 0.7\nsamples = 928\nvalue = [24, 78, 46, 23, 125, 42, 87, 8, 22, 473]"] ;
0 -> 1 [labeldistance=2.5, labelangle=45, headlabel="True"] ;
2 [label="X[67] <= 0.0\ngini = 0.838\nsamples = 373\nvalue = [24, 50, 44, 2, 101, 29, 70, 8, 6, 39]"] ;
1 -> 2 ;
3 [label="X[152] <= 0.297\ngini = 0.825\nsamples = 314\nvalue = [24, 44, 44, 2, 100, 29, 20, 8, 5, 38]"] ;
2 -> 3 ;
4 [label="X[149] <= 0.085\ngini = 0.739\nsamples = 206\nvalue = [24, 11, 42, 1, 90, 2, 20, 2, 4, 10]"] ;
3 -> 4 ;
5 [label="X[254] <= 0.006\ngini = 0.814\nsamples = 79\nvalue = [24, 9, 16, 0, 9, 1, 9, 0, 2, 9]"] ;
4 -> 5 ;
6 [label="X[286] <= 0.004\ngini = 0.439\nsamples = 33\nvalue = [24, 0, 1, 0, 5, 0, 3, 0, 0, 0]"] ;
5 -> 6 ;
7 [label="X[64] <= 0.0\ngini = 0.08\nsamples = 24\nvalue = [23, 0, 1, 0, 0, 0, 0, 0, 0, 0]"] ;
6 -> 7 ;
8 [label="gini = 0.0\nsamples = 23\nvalue = [23, 0, 0, 0, 0, 0, 0, 0, 0, 0]"] ;
7 -> 8 ;
9 [label="gini = 0.0\nsamples = 1\nvalue = [0, 0, 1, 0, 0, 0, 0, 0, 0, 0]"] ;
7 -> 9 ;
10 [label="X[325] <= 0.0\ngini = 0.568\nsamples = 9\nvalue = [1, 0, 0, 0, 5, 0, 3, 0, 0, 0]"] ;
6 -> 10 ;
11 [label="X[217] <= -0.002\ngini = 0.375\nsamples = 4\nvalue = [1, 0, 0, 0, 0, 0, 3, 0, 0, 0]"] ;
10 -> 11 ;
12 [label="gini = 0.0\nsamples = 3\nvalue = [0, 0, 0, 0, 0, 0, 3, 0, 0, 0]"] ;
11 -> 12 ;
13 [label="gini = 0.0\nsamples = 1\nvalue = [1, 0, 0, 0, 0, 0, 0, 0, 0, 0]"] ;
11 -> 13 ;
14 [label="gini = 0.0\nsamples = 5\nvalue = [0, 0, 0, 0, 5, 0, 0, 0, 0, 0]"] ;
10 -> 14 ;
15 [label="X[71] <= 0.32\ngini = 0.79\nsamples = 46\nvalue = [0, 9, 15, 0, 4, 1, 6, 0, 2, 9]"] ;
5 -> 15 ;
16 [label="X[228] <= 0.579\ngini = 0.722\nsamples = 36\nvalue = [0, 9, 15, 0, 4, 1, 6, 0, 1, 0]"] ;
15 -> 16 ;
17 [label="X[154] <= 0.001\ngini = 0.707\nsamples = 21\nvalue = [0, 9, 3, 0, 1, 1, 6, 0, 1, 0]"] ;
16 -> 17 ;
18 [label="X[311] <= -0.006\ngini = 0.645\nsamples = 11\nvalue = [0, 0, 2, 0, 1, 1, 6, 0, 1, 0]"] ;
17 -> 18 ;
19 [label="gini = 0.0\nsamples = 6\nvalue = [0, 0, 0, 0, 0, 0, 6, 0, 0, 0]"] ;
18 -> 19 ;
20 [label="X[276] <= -0.005\ngini = 0.72\nsamples = 5\nvalue = [0, 0, 2, 0, 1, 1, 0, 0, 1, 0]"] ;
18 -> 20 ;
21 [label="X[199] <= -0.021\ngini = 0.667\nsamples = 3\nvalue = [0, 0, 0, 0, 1, 1, 0, 0, 1, 0]"] ;
20 -> 21 ;
22 [label="gini = 0.0\nsamples = 1\nvalue = [0, 0, 0, 0, 1, 0, 0, 0, 0, 0]"] ;
21 -> 22 ;
23 [label="X[259] <= 0.001\ngini = 0.5\nsamples = 2\nvalue = [0, 0, 0, 0, 0, 1, 0, 0, 1, 0]"] ;
21 -> 23 ;
24 [label="gini = 0.0\nsamples = 1\nvalue = [0, 0, 0, 0, 0, 1, 0, 0, 0, 0]"] ;
23 -> 24 ;
25 [label="gini = 0.0\nsamples = 1\nvalue = [0, 0, 0, 0, 0, 0, 0, 0, 1, 0]"] ;
23 -> 25 ;
26 [label="gini = 0.0\nsamples = 2\nvalue = [0, 0, 2, 0, 0, 0, 0, 0, 0, 0]"] ;
20 -> 26 ;
27 [label="X[285] <= -0.019\ngini = 0.18\nsamples = 10\nvalue = [0, 9, 1, 0, 0, 0, 0, 0, 0, 0]"] ;
17 -> 27 ;
28 [label="gini = 0.0\nsamples = 1\nvalue = [0, 0, 1, 0, 0, 0, 0, 0, 0, 0]"] ;
27 -> 28 ;
29 [label="gini = 0.0\nsamples = 9\nvalue = [0, 9, 0, 0, 0, 0, 0, 0, 0, 0]"] ;
27 -> 29 ;
30 [label="X[328] <= 0.0\ngini = 0.32\nsamples = 15\nvalue = [0, 0, 12, 0, 3, 0, 0, 0, 0, 0]"] ;
16 -> 30 ;
31 [label="gini = 0.0\nsamples = 12\nvalue = [0, 0, 12, 0, 0, 0, 0, 0, 0, 0]"] ;
30 -> 31 ;
32 [label="gini = 0.0\nsamples = 3\nvalue = [0, 0, 0, 0, 3, 0, 0, 0, 0, 0]"] ;
30 -> 32 ;
33 [label="X[369] <= -0.001\ngini = 0.18\nsamples = 10\nvalue = [0, 0, 0, 0, 0, 0, 0, 0, 1, 9]"] ;
15 -> 33 ;
34 [label="gini = 0.0\nsamples = 9\nvalue = [0, 0, 0, 0, 0, 0, 0, 0, 0, 9]"] ;
33 -> 34 ;
35 [label="gini = 0.0\nsamples = 1\nvalue = [0, 0, 0, 0, 0, 0, 0, 0, 1, 0]"] ;
33 -> 35 ;
36 [label="X[252] <= 0.85\ngini = 0.543\nsamples = 127\nvalue = [0, 2, 26, 1, 81, 1, 11, 2, 2, 1]"] ;
4 -> 36 ;
37 [label="X[208] <= 0.965\ngini = 0.386\nsamples = 105\nvalue = [0, 0, 19, 0, 80, 1, 1, 2, 1, 1]"] ;
36 -> 37 ;
38 [label="X[135] <= -0.02\ngini = 0.205\nsamples = 81\nvalue = [0, 0, 5, 0, 72, 1, 1, 1, 0, 1]"] ;
37 -> 38 ;
39 [label="X[116] <= 0.206\ngini = 0.444\nsamples = 3\nvalue = [0, 0, 2, 0, 0, 0, 1, 0, 0, 0]"] ;
38 -> 39 ;
40 [label="gini = 0.0\nsamples = 1\nvalue = [0, 0, 0, 0, 0, 0, 1, 0, 0, 0]"] ;
39 -> 40 ;
41 [label="gini = 0.0\nsamples = 2\nvalue = [0, 0, 2, 0, 0, 0, 0, 0, 0, 0]"] ;
39 -> 41 ;
42 [label="X[173] <= 0.624\ngini = 0.146\nsamples = 78\nvalue = [0, 0, 3, 0, 72, 1, 0, 1, 0, 1]"] ;
38 -> 42 ;
43 [label="X[94] <= 1.023\ngini = 0.101\nsamples = 76\nvalue = [0, 0, 3, 0, 72, 0, 0, 0, 0, 1]"] ;
42 -> 43 ;
44 [label="X[146] <= -0.034\ngini = 0.053\nsamples = 74\nvalue = [0, 0, 2, 0, 72, 0, 0, 0, 0, 0]"] ;
43 -> 44 ;
45 [label="gini = 0.0\nsamples = 1\nvalue = [0, 0, 1, 0, 0, 0, 0, 0, 0, 0]"] ;
44 -> 45 ;
46 [label="X[177] <= -0.05\ngini = 0.027\nsamples = 73\nvalue = [0, 0, 1, 0, 72, 0, 0, 0, 0, 0]"] ;
44 -> 46 ;
47 [label="gini = 0.0\nsamples = 1\nvalue = [0, 0, 1, 0, 0, 0, 0, 0, 0, 0]"] ;
46 -> 47 ;
48 [label="gini = 0.0\nsamples = 72\nvalue = [0, 0, 0, 0, 72, 0, 0, 0, 0, 0]"] ;
46 -> 48 ;
49 [label="X[212] <= -0.01\ngini = 0.5\nsamples = 2\nvalue = [0, 0, 1, 0, 0, 0, 0, 0, 0, 1]"] ;
43 -> 49 ;
50 [label="gini = 0.0\nsamples = 1\nvalue = [0, 0, 1, 0, 0, 0, 0, 0, 0, 0]"] ;
49 -> 50 ;
51 [label="gini = 0.0\nsamples = 1\nvalue = [0, 0, 0, 0, 0, 0, 0, 0, 0, 1]"] ;
49 -> 51 ;
52 [label="X[180] <= 0.0\ngini = 0.5\nsamples = 2\nvalue = [0, 0, 0, 0, 0, 1, 0, 1, 0, 0]"] ;
42 -> 52 ;
53 [label="gini = 0.0\nsamples = 1\nvalue = [0, 0, 0, 0, 0, 0, 0, 1, 0, 0]"] ;
52 -> 53 ;
54 [label="gini = 0.0\nsamples = 1\nvalue = [0, 0, 0, 0, 0, 1, 0, 0, 0, 0]"] ;
52 -> 54 ;
55 [label="X[264] <= 0.11\ngini = 0.545\nsamples = 24\nvalue = [0, 0, 14, 0, 8, 0, 0, 1, 1, 0]"] ;
37 -> 55 ;
56 [label="gini = 0.0\nsamples = 11\nvalue = [0, 0, 11, 0, 0, 0, 0, 0, 0, 0]"] ;
55 -> 56 ;
57 [label="X[246] <= 0.289\ngini = 0.556\nsamples = 13\nvalue = [0, 0, 3, 0, 8, 0, 0, 1, 1, 0]"] ;
55 -> 57 ;
58 [label="gini = 0.0\nsamples = 8\nvalue = [0, 0, 0, 0, 8, 0, 0, 0, 0, 0]"] ;
57 -> 58 ;
59 [label="X[198] <= -0.015\ngini = 0.56\nsamples = 5\nvalue = [0, 0, 3, 0, 0, 0, 0, 1, 1, 0]"] ;
57 -> 59 ;
60 [label="gini = 0.0\nsamples = 3\nvalue = [0, 0, 3, 0, 0, 0, 0, 0, 0, 0]"] ;
59 -> 60 ;
61 [label="X[145] <= 0.297\ngini = 0.5\nsamples = 2\nvalue = [0, 0, 0, 0, 0, 0, 0, 1, 1, 0]"] ;
59 -> 61 ;
62 [label="gini = 0.0\nsamples = 1\nvalue = [0, 0, 0, 0, 0, 0, 0, 1, 0, 0]"] ;
61 -> 62 ;
63 [label="gini = 0.0\nsamples = 1\nvalue = [0, 0, 0, 0, 0, 0, 0, 0, 1, 0]"] ;
61 -> 63 ;
64 [label="X[244] <= 0.036\ngini = 0.678\nsamples = 22\nvalue = [0, 2, 7, 1, 1, 0, 10, 0, 1, 0]"] ;
36 -> 64 ;
65 [label="X[150] <= 0.39\ngini = 0.292\nsamples = 12\nvalue = [0, 0, 0, 1, 0, 0, 10, 0, 1, 0]"] ;
64 -> 65 ;
66 [label="gini = 0.0\nsamples = 10\nvalue = [0, 0, 0, 0, 0, 0, 10, 0, 0, 0]"] ;
65 -> 66 ;
67 [label="X[213] <= 0.283\ngini = 0.5\nsamples = 2\nvalue = [0, 0, 0, 1, 0, 0, 0, 0, 1, 0]"] ;
65 -> 67 ;
68 [label="gini = 0.0\nsamples = 1\nvalue = [0, 0, 0, 0, 0, 0, 0, 0, 1, 0]"] ;
67 -> 68 ;
69 [label="gini = 0.0\nsamples = 1\nvalue = [0, 0, 0, 1, 0, 0, 0, 0, 0, 0]"] ;
67 -> 69 ;
70 [label="X[293] <= -0.013\ngini = 0.46\nsamples = 10\nvalue = [0, 2, 7, 0, 1, 0, 0, 0, 0, 0]"] ;
64 -> 70 ;
71 [label="X[137] <= 0.03\ngini = 0.444\nsamples = 3\nvalue = [0, 2, 0, 0, 1, 0, 0, 0, 0, 0]"] ;
70 -> 71 ;
72 [label="gini = 0.0\nsamples = 1\nvalue = [0, 0, 0, 0, 1, 0, 0, 0, 0, 0]"] ;
71 -> 72 ;
73 [label="gini = 0.0\nsamples = 2\nvalue = [0, 2, 0, 0, 0, 0, 0, 0, 0, 0]"] ;
71 -> 73 ;
74 [label="gini = 0.0\nsamples = 7\nvalue = [0, 0, 7, 0, 0, 0, 0, 0, 0, 0]"] ;
70 -> 74 ;
75 [label="X[149] <= 0.011\ngini = 0.765\nsamples = 108\nvalue = [0, 33, 2, 1, 10, 27, 0, 6, 1, 28]"] ;
3 -> 75 ;
76 [label="X[168] <= 0.0\ngini = 0.343\nsamples = 36\nvalue = [0, 29, 1, 0, 1, 2, 0, 1, 0, 2]"] ;
75 -> 76 ;
77 [label="gini = 0.0\nsamples = 25\nvalue = [0, 25, 0, 0, 0, 0, 0, 0, 0, 0]"] ;
76 -> 77 ;
78 [label="X[196] <= 0.184\ngini = 0.777\nsamples = 11\nvalue = [0, 4, 1, 0, 1, 2, 0, 1, 0, 2]"] ;
76 -> 78 ;
79 [label="gini = 0.0\nsamples = 4\nvalue = [0, 4, 0, 0, 0, 0, 0, 0, 0, 0]"] ;
78 -> 79 ;
80 [label="X[306] <= 0.425\ngini = 0.776\nsamples = 7\nvalue = [0, 0, 1, 0, 1, 2, 0, 1, 0, 2]"] ;
78 -> 80 ;
81 [label="X[261] <= -0.003\ngini = 0.72\nsamples = 5\nvalue = [0, 0, 1, 0, 1, 2, 0, 1, 0, 0]"] ;
80 -> 81 ;
82 [label="gini = 0.0\nsamples = 2\nvalue = [0, 0, 0, 0, 0, 2, 0, 0, 0, 0]"] ;
81 -> 82 ;
83 [label="X[75] <= -0.0\ngini = 0.667\nsamples = 3\nvalue = [0, 0, 1, 0, 1, 0, 0, 1, 0, 0]"] ;
81 -> 83 ;
84 [label="gini = 0.0\nsamples = 1\nvalue = [0, 0, 1, 0, 0, 0, 0, 0, 0, 0]"] ;
83 -> 84 ;
85 [label="X[255] <= -0.021\ngini = 0.5\nsamples = 2\nvalue = [0, 0, 0, 0, 1, 0, 0, 1, 0, 0]"] ;
83 -> 85 ;
86 [label="gini = 0.0\nsamples = 1\nvalue = [0, 0, 0, 0, 0, 0, 0, 1, 0, 0]"] ;
85 -> 86 ;
87 [label="gini = 0.0\nsamples = 1\nvalue = [0, 0, 0, 0, 1, 0, 0, 0, 0, 0]"] ;
85 -> 87 ;
88 [label="gini = 0.0\nsamples = 2\nvalue = [0, 0, 0, 0, 0, 0, 0, 0, 0, 2]"] ;
80 -> 88 ;
89 [label="X[266] <= 0.004\ngini = 0.725\nsamples = 72\nvalue = [0, 4, 1, 1, 9, 25, 0, 5, 1, 26]"] ;
75 -> 89 ;
90 [label="X[217] <= 0.055\ngini = 0.339\nsamples = 31\nvalue = [0, 2, 0, 1, 2, 25, 0, 1, 0, 0]"] ;
89 -> 90 ;
91 [label="X[353] <= 0.326\ngini = 0.137\nsamples = 27\nvalue = [0, 2, 0, 0, 0, 25, 0, 0, 0, 0]"] ;
90 -> 91 ;
92 [label="gini = 0.0\nsamples = 25\nvalue = [0, 0, 0, 0, 0, 25, 0, 0, 0, 0]"] ;
91 -> 92 ;
93 [label="gini = 0.0\nsamples = 2\nvalue = [0, 2, 0, 0, 0, 0, 0, 0, 0, 0]"] ;
91 -> 93 ;
94 [label="X[308] <= 0.157\ngini = 0.625\nsamples = 4\nvalue = [0, 0, 0, 1, 2, 0, 0, 1, 0, 0]"] ;
90 -> 94 ;
95 [label="gini = 0.0\nsamples = 2\nvalue = [0, 0, 0, 0, 2, 0, 0, 0, 0, 0]"] ;
94 -> 95 ;
96 [label="X[312] <= 0.0\ngini = 0.5\nsamples = 2\nvalue = [0, 0, 0, 1, 0, 0, 0, 1, 0, 0]"] ;
94 -> 96 ;
97 [label="gini = 0.0\nsamples = 1\nvalue = [0, 0, 0, 0, 0, 0, 0, 1, 0, 0]"] ;
96 -> 97 ;
98 [label="gini = 0.0\nsamples = 1\nvalue = [0, 0, 0, 1, 0, 0, 0, 0, 0, 0]"] ;
96 -> 98 ;
99 [label="X[271] <= 0.337\ngini = 0.556\nsamples = 41\nvalue = [0, 2, 1, 0, 7, 0, 0, 4, 1, 26]"] ;
89 -> 99 ;
100 [label="X[154] <= 0.389\ngini = 0.711\nsamples = 16\nvalue = [0, 2, 0, 0, 7, 0, 0, 4, 1, 2]"] ;
99 -> 100 ;
101 [label="gini = 0.0\nsamples = 7\nvalue = [0, 0, 0, 0, 7, 0, 0, 0, 0, 0]"] ;
100 -> 101 ;
102 [label="X[190] <= 0.579\ngini = 0.691\nsamples = 9\nvalue = [0, 2, 0, 0, 0, 0, 0, 4, 1, 2]"] ;
100 -> 102 ;
103 [label="X[264] <= 0.208\ngini = 0.64\nsamples = 5\nvalue = [0, 2, 0, 0, 0, 0, 0, 0, 1, 2]"] ;
102 -> 103 ;
104 [label="gini = 0.0\nsamples = 2\nvalue = [0, 0, 0, 0, 0, 0, 0, 0, 0, 2]"] ;
103 -> 104 ;
105 [label="X[270] <= 0.168\ngini = 0.444\nsamples = 3\nvalue = [0, 2, 0, 0, 0, 0, 0, 0, 1, 0]"] ;
103 -> 105 ;
106 [label="gini = 0.0\nsamples = 2\nvalue = [0, 2, 0, 0, 0, 0, 0, 0, 0, 0]"] ;
105 -> 106 ;
107 [label="gini = 0.0\nsamples = 1\nvalue = [0, 0, 0, 0, 0, 0, 0, 0, 1, 0]"] ;
105 -> 107 ;
108 [label="gini = 0.0\nsamples = 4\nvalue = [0, 0, 0, 0, 0, 0, 0, 4, 0, 0]"] ;
102 -> 108 ;
109 [label="X[353] <= -0.009\ngini = 0.077\nsamples = 25\nvalue = [0, 0, 1, 0, 0, 0, 0, 0, 0, 24]"] ;
99 -> 109 ;
110 [label="gini = 0.0\nsamples = 1\nvalue = [0, 0, 1, 0, 0, 0, 0, 0, 0, 0]"] ;
109 -> 110 ;
111 [label="gini = 0.0\nsamples = 24\nvalue = [0, 0, 0, 0, 0, 0, 0, 0, 0, 24]"] ;
109 -> 111 ;
112 [label="X[314] <= 0.308\ngini = 0.271\nsamples = 59\nvalue = [0, 6, 0, 0, 1, 0, 50, 0, 1, 1]"] ;
2 -> 112 ;
113 [label="X[262] <= 0.0\ngini = 0.075\nsamples = 52\nvalue = [0, 1, 0, 0, 0, 0, 50, 0, 1, 0]"] ;
112 -> 113 ;
114 [label="gini = 0.0\nsamples = 50\nvalue = [0, 0, 0, 0, 0, 0, 50, 0, 0, 0]"] ;
113 -> 114 ;
115 [label="X[311] <= 0.304\ngini = 0.5\nsamples = 2\nvalue = [0, 1, 0, 0, 0, 0, 0, 0, 1, 0]"] ;
113 -> 115 ;
116 [label="gini = 0.0\nsamples = 1\nvalue = [0, 1, 0, 0, 0, 0, 0, 0, 0, 0]"] ;
115 -> 116 ;
117 [label="gini = 0.0\nsamples = 1\nvalue = [0, 0, 0, 0, 0, 0, 0, 0, 1, 0]"] ;
115 -> 117 ;
118 [label="X[291] <= -0.003\ngini = 0.449\nsamples = 7\nvalue = [0, 5, 0, 0, 1, 0, 0, 0, 0, 1]"] ;
112 -> 118 ;
119 [label="X[223] <= 0.015\ngini = 0.5\nsamples = 2\nvalue = [0, 0, 0, 0, 1, 0, 0, 0, 0, 1]"] ;
118 -> 119 ;
120 [label="gini = 0.0\nsamples = 1\nvalue = [0, 0, 0, 0, 1, 0, 0, 0, 0, 0]"] ;
119 -> 120 ;
121 [label="gini = 0.0\nsamples = 1\nvalue = [0, 0, 0, 0, 0, 0, 0, 0, 0, 1]"] ;
119 -> 121 ;
122 [label="gini = 0.0\nsamples = 5\nvalue = [0, 5, 0, 0, 0, 0, 0, 0, 0, 0]"] ;
118 -> 122 ;
123 [label="X[192] <= 0.211\ngini = 0.38\nsamples = 555\nvalue = [0, 28, 2, 21, 24, 13, 17, 0, 16, 434]"] ;
1 -> 123 ;
124 [label="X[135] <= 0.001\ngini = 0.165\nsamples = 470\nvalue = [0, 3, 0, 2, 9, 6, 17, 0, 4, 429]"] ;
123 -> 124 ;
125 [label="X[135] <= -0.001\ngini = 0.651\nsamples = 34\nvalue = [0, 0, 0, 1, 1, 2, 17, 0, 3, 10]"] ;
124 -> 125 ;
126 [label="X[212] <= 0.055\ngini = 0.379\nsamples = 13\nvalue = [0, 0, 0, 0, 0, 2, 0, 0, 1, 10]"] ;
125 -> 126 ;
127 [label="gini = 0.0\nsamples = 10\nvalue = [0, 0, 0, 0, 0, 0, 0, 0, 0, 10]"] ;
126 -> 127 ;
128 [label="X[86] <= -0.006\ngini = 0.444\nsamples = 3\nvalue = [0, 0, 0, 0, 0, 2, 0, 0, 1, 0]"] ;
126 -> 128 ;
129 [label="gini = 0.0\nsamples = 1\nvalue = [0, 0, 0, 0, 0, 0, 0, 0, 1, 0]"] ;
128 -> 129 ;
130 [label="gini = 0.0\nsamples = 2\nvalue = [0, 0, 0, 0, 0, 2, 0, 0, 0, 0]"] ;
128 -> 130 ;
131 [label="X[187] <= 0.064\ngini = 0.331\nsamples = 21\nvalue = [0, 0, 0, 1, 1, 0, 17, 0, 2, 0]"] ;
125 -> 131 ;
132 [label="X[123] <= -0.001\ngini = 0.444\nsamples = 3\nvalue = [0, 0, 0, 1, 0, 0, 0, 0, 2, 0]"] ;
131 -> 132 ;
133 [label="gini = 0.0\nsamples = 2\nvalue = [0, 0, 0, 0, 0, 0, 0, 0, 2, 0]"] ;
132 -> 133 ;
134 [label="gini = 0.0\nsamples = 1\nvalue = [0, 0, 0, 1, 0, 0, 0, 0, 0, 0]"] ;
132 -> 134 ;
135 [label="X[316] <= -0.014\ngini = 0.105\nsamples = 18\nvalue = [0, 0, 0, 0, 1, 0, 17, 0, 0, 0]"] ;
131 -> 135 ;
136 [label="gini = 0.0\nsamples = 1\nvalue = [0, 0, 0, 0, 1, 0, 0, 0, 0, 0]"] ;
135 -> 136 ;
137 [label="gini = 0.0\nsamples = 17\nvalue = [0, 0, 0, 0, 0, 0, 17, 0, 0, 0]"] ;
135 -> 137 ;
138 [label="X[112] <= -0.022\ngini = 0.076\nsamples = 436\nvalue = [0, 3, 0, 1, 8, 4, 0, 0, 1, 419]"] ;
124 -> 138 ;
139 [label="X[53] <= 0.11\ngini = 0.32\nsamples = 5\nvalue = [0, 0, 0, 0, 4, 0, 0, 0, 0, 1]"] ;
138 -> 139 ;
140 [label="gini = 0.0\nsamples = 4\nvalue = [0, 0, 0, 0, 4, 0, 0, 0, 0, 0]"] ;
139 -> 140 ;
141 [label="gini = 0.0\nsamples = 1\nvalue = [0, 0, 0, 0, 0, 0, 0, 0, 0, 1]"] ;
139 -> 141 ;
142 [label="X[196] <= -0.04\ngini = 0.059\nsamples = 431\nvalue = [0, 3, 0, 1, 4, 4, 0, 0, 1, 418]"] ;
138 -> 142 ;
143 [label="gini = 0.0\nsamples = 2\nvalue = [0, 0, 0, 0, 0, 2, 0, 0, 0, 0]"] ;
142 -> 143 ;
144 [label="X[302] <= 0.415\ngini = 0.05\nsamples = 429\nvalue = [0, 3, 0, 1, 4, 2, 0, 0, 1, 418]"] ;
142 -> 144 ;
145 [label="X[101] <= 0.001\ngini = 0.042\nsamples = 427\nvalue = [0, 2, 0, 0, 4, 2, 0, 0, 1, 418]"] ;
144 -> 145 ;
146 [label="X[201] <= 0.098\ngini = 0.033\nsamples = 425\nvalue = [0, 1, 0, 0, 4, 1, 0, 0, 1, 418]"] ;
145 -> 146 ;
147 [label="X[217] <= -0.051\ngini = 0.028\nsamples = 424\nvalue = [0, 0, 0, 0, 4, 1, 0, 0, 1, 418]"] ;
146 -> 147 ;
148 [label="gini = 0.0\nsamples = 1\nvalue = [0, 0, 0, 0, 0, 1, 0, 0, 0, 0]"] ;
147 -> 148 ;
149 [label="X[68] <= -0.043\ngini = 0.023\nsamples = 423\nvalue = [0, 0, 0, 0, 4, 0, 0, 0, 1, 418]"] ;
147 -> 149 ;
150 [label="gini = 0.0\nsamples = 1\nvalue = [0, 0, 0, 0, 1, 0, 0, 0, 0, 0]"] ;
149 -> 150 ;
151 [label="X[384] <= -0.009\ngini = 0.019\nsamples = 422\nvalue = [0, 0, 0, 0, 3, 0, 0, 0, 1, 418]"] ;
149 -> 151 ;
152 [label="gini = 0.0\nsamples = 1\nvalue = [0, 0, 0, 0, 1, 0, 0, 0, 0, 0]"] ;
151 -> 152 ;
153 [label="X[166] <= -0.055\ngini = 0.014\nsamples = 421\nvalue = [0, 0, 0, 0, 2, 0, 0, 0, 1, 418]"] ;
151 -> 153 ;
154 [label="gini = 0.0\nsamples = 1\nvalue = [0, 0, 0, 0, 1, 0, 0, 0, 0, 0]"] ;
153 -> 154 ;
155 [label="X[198] <= 0.0\ngini = 0.009\nsamples = 420\nvalue = [0, 0, 0, 0, 1, 0, 0, 0, 1, 418]"] ;
153 -> 155 ;
156 [label="X[227] <= 1.031\ngini = 0.005\nsamples = 417\nvalue = [0, 0, 0, 0, 1, 0, 0, 0, 0, 416]"] ;
155 -> 156 ;
157 [label="gini = 0.0\nsamples = 413\nvalue = [0, 0, 0, 0, 0, 0, 0, 0, 0, 413]"] ;
156 -> 157 ;
158 [label="X[147] <= 0.723\ngini = 0.375\nsamples = 4\nvalue = [0, 0, 0, 0, 1, 0, 0, 0, 0, 3]"] ;
156 -> 158 ;
159 [label="gini = 0.0\nsamples = 3\nvalue = [0, 0, 0, 0, 0, 0, 0, 0, 0, 3]"] ;
158 -> 159 ;
160 [label="gini = 0.0\nsamples = 1\nvalue = [0, 0, 0, 0, 1, 0, 0, 0, 0, 0]"] ;
158 -> 160 ;
161 [label="X[245] <= 0.486\ngini = 0.444\nsamples = 3\nvalue = [0, 0, 0, 0, 0, 0, 0, 0, 1, 2]"] ;
155 -> 161 ;
162 [label="gini = 0.0\nsamples = 1\nvalue = [0, 0, 0, 0, 0, 0, 0, 0, 1, 0]"] ;
161 -> 162 ;
163 [label="gini = 0.0\nsamples = 2\nvalue = [0, 0, 0, 0, 0, 0, 0, 0, 0, 2]"] ;
161 -> 163 ;
164 [label="gini = 0.0\nsamples = 1\nvalue = [0, 1, 0, 0, 0, 0, 0, 0, 0, 0]"] ;
146 -> 164 ;
165 [label="X[86] <= -0.016\ngini = 0.5\nsamples = 2\nvalue = [0, 1, 0, 0, 0, 1, 0, 0, 0, 0]"] ;
145 -> 165 ;
166 [label="gini = 0.0\nsamples = 1\nvalue = [0, 0, 0, 0, 0, 1, 0, 0, 0, 0]"] ;
165 -> 166 ;
167 [label="gini = 0.0\nsamples = 1\nvalue = [0, 1, 0, 0, 0, 0, 0, 0, 0, 0]"] ;
165 -> 167 ;
168 [label="X[331] <= -0.0\ngini = 0.5\nsamples = 2\nvalue = [0, 1, 0, 1, 0, 0, 0, 0, 0, 0]"] ;
144 -> 168 ;
169 [label="gini = 0.0\nsamples = 1\nvalue = [0, 1, 0, 0, 0, 0, 0, 0, 0, 0]"] ;
168 -> 169 ;
170 [label="gini = 0.0\nsamples = 1\nvalue = [0, 0, 0, 1, 0, 0, 0, 0, 0, 0]"] ;
168 -> 170 ;
171 [label="X[271] <= 0.052\ngini = 0.802\nsamples = 85\nvalue = [0, 25, 2, 19, 15, 7, 0, 0, 12, 5]"] ;
123 -> 171 ;
172 [label="X[132] <= 0.794\ngini = 0.479\nsamples = 22\nvalue = [0, 1, 1, 0, 15, 5, 0, 0, 0, 0]"] ;
171 -> 172 ;
173 [label="gini = 0.0\nsamples = 14\nvalue = [0, 0, 0, 0, 14, 0, 0, 0, 0, 0]"] ;
172 -> 173 ;
174 [label="X[116] <= -0.004\ngini = 0.562\nsamples = 8\nvalue = [0, 1, 1, 0, 1, 5, 0, 0, 0, 0]"] ;
172 -> 174 ;
175 [label="X[135] <= 0.125\ngini = 0.667\nsamples = 3\nvalue = [0, 1, 1, 0, 1, 0, 0, 0, 0, 0]"] ;
174 -> 175 ;
176 [label="gini = 0.0\nsamples = 1\nvalue = [0, 0, 0, 0, 1, 0, 0, 0, 0, 0]"] ;
175 -> 176 ;
177 [label="X[86] <= 0.197\ngini = 0.5\nsamples = 2\nvalue = [0, 1, 1, 0, 0, 0, 0, 0, 0, 0]"] ;
175 -> 177 ;
178 [label="gini = 0.0\nsamples = 1\nvalue = [0, 0, 1, 0, 0, 0, 0, 0, 0, 0]"] ;
177 -> 178 ;
179 [label="gini = 0.0\nsamples = 1\nvalue = [0, 1, 0, 0, 0, 0, 0, 0, 0, 0]"] ;
177 -> 179 ;
180 [label="gini = 0.0\nsamples = 5\nvalue = [0, 0, 0, 0, 0, 5, 0, 0, 0, 0]"] ;
174 -> 180 ;
181 [label="X[135] <= 0.022\ngini = 0.72\nsamples = 63\nvalue = [0, 24, 1, 19, 0, 2, 0, 0, 12, 5]"] ;
171 -> 181 ;
182 [label="X[205] <= 0.448\ngini = 0.617\nsamples = 37\nvalue = [0, 4, 0, 19, 0, 2, 0, 0, 12, 0]"] ;
181 -> 182 ;
183 [label="X[224] <= 0.659\ngini = 0.177\nsamples = 21\nvalue = [0, 1, 0, 19, 0, 0, 0, 0, 1, 0]"] ;
182 -> 183 ;
184 [label="gini = 0.0\nsamples = 19\nvalue = [0, 0, 0, 19, 0, 0, 0, 0, 0, 0]"] ;
183 -> 184 ;
185 [label="X[263] <= -0.015\ngini = 0.5\nsamples = 2\nvalue = [0, 1, 0, 0, 0, 0, 0, 0, 1, 0]"] ;
183 -> 185 ;
186 [label="gini = 0.0\nsamples = 1\nvalue = [0, 0, 0, 0, 0, 0, 0, 0, 1, 0]"] ;
185 -> 186 ;
187 [label="gini = 0.0\nsamples = 1\nvalue = [0, 1, 0, 0, 0, 0, 0, 0, 0, 0]"] ;
185 -> 187 ;
188 [label="X[168] <= 0.039\ngini = 0.477\nsamples = 16\nvalue = [0, 3, 0, 0, 0, 2, 0, 0, 11, 0]"] ;
182 -> 188 ;
189 [label="gini = 0.0\nsamples = 11\nvalue = [0, 0, 0, 0, 0, 0, 0, 0, 11, 0]"] ;
188 -> 189 ;
190 [label="X[166] <= 0.39\ngini = 0.48\nsamples = 5\nvalue = [0, 3, 0, 0, 0, 2, 0, 0, 0, 0]"] ;
188 -> 190 ;
191 [label="gini = 0.0\nsamples = 3\nvalue = [0, 3, 0, 0, 0, 0, 0, 0, 0, 0]"] ;
190 -> 191 ;
192 [label="gini = 0.0\nsamples = 2\nvalue = [0, 0, 0, 0, 0, 2, 0, 0, 0, 0]"] ;
190 -> 192 ;
193 [label="X[129] <= 0.656\ngini = 0.37\nsamples = 26\nvalue = [0, 20, 1, 0, 0, 0, 0, 0, 0, 5]"] ;
181 -> 193 ;
194 [label="X[196] <= 0.954\ngini = 0.091\nsamples = 21\nvalue = [0, 20, 1, 0, 0, 0, 0, 0, 0, 0]"] ;
193 -> 194 ;
195 [label="gini = 0.0\nsamples = 20\nvalue = [0, 20, 0, 0, 0, 0, 0, 0, 0, 0]"] ;
194 -> 195 ;
196 [label="gini = 0.0\nsamples = 1\nvalue = [0, 0, 1, 0, 0, 0, 0, 0, 0, 0]"] ;
194 -> 196 ;
197 [label="gini = 0.0\nsamples = 5\nvalue = [0, 0, 0, 0, 0, 0, 0, 0, 0, 5]"] ;
193 -> 197 ;
198 [label="X[223] <= 0.005\ngini = 0.89\nsamples = 4072\nvalue = [476, 422, 454, 477, 375, 458, 413, 492, 478, 27]"] ;
0 -> 198 [labeldistance=2.5, labelangle=-45, headlabel="False"] ;
199 [label="X[150] <= 0.035\ngini = 0.845\nsamples = 2082\nvalue = [207, 84, 111, 417, 218, 87, 406, 89, 458, 5]"] ;
198 -> 199 ;
200 [label="X[190] <= 0.078\ngini = 0.732\nsamples = 804\nvalue = [202, 42, 44, 25, 24, 21, 349, 27, 69, 1]"] ;
199 -> 200 ;
201 [label="X[132] <= 0.004\ngini = 0.429\nsamples = 438\nvalue = [5, 16, 12, 21, 7, 10, 327, 0, 39, 1]"] ;
200 -> 201 ;
202 [label="X[209] <= 0.546\ngini = 0.212\nsamples = 352\nvalue = [5, 8, 11, 1, 4, 0, 312, 0, 11, 0]"] ;
201 -> 202 ;
203 [label="X[352] <= 0.212\ngini = 0.108\nsamples = 322\nvalue = [2, 7, 4, 1, 0, 0, 304, 0, 4, 0]"] ;
202 -> 203 ;
204 [label="X[102] <= 0.0\ngini = 0.086\nsamples = 318\nvalue = [2, 3, 4, 1, 0, 0, 304, 0, 4, 0]"] ;
203 -> 204 ;
205 [label="X[250] <= 0.024\ngini = 0.068\nsamples = 315\nvalue = [2, 1, 4, 0, 0, 0, 304, 0, 4, 0]"] ;
204 -> 205 ;
206 [label="X[219] <= -0.002\ngini = 0.444\nsamples = 3\nvalue = [2, 0, 0, 0, 0, 0, 0, 0, 1, 0]"] ;
205 -> 206 ;
207 [label="gini = 0.0\nsamples = 1\nvalue = [0, 0, 0, 0, 0, 0, 0, 0, 1, 0]"] ;
206 -> 207 ;
208 [label="gini = 0.0\nsamples = 2\nvalue = [2, 0, 0, 0, 0, 0, 0, 0, 0, 0]"] ;
206 -> 208 ;
209 [label="X[297] <= 0.38\ngini = 0.05\nsamples = 312\nvalue = [0, 1, 4, 0, 0, 0, 304, 0, 3, 0]"] ;
205 -> 209 ;
210 [label="X[236] <= 1.062\ngini = 0.038\nsamples = 310\nvalue = [0, 0, 3, 0, 0, 0, 304, 0, 3, 0]"] ;
209 -> 210 ;
211 [label="X[149] <= 0.833\ngini = 0.032\nsamples = 309\nvalue = [0, 0, 3, 0, 0, 0, 304, 0, 2, 0]"] ;
210 -> 211 ;
212 [label="X[214] <= -0.052\ngini = 0.026\nsamples = 308\nvalue = [0, 0, 3, 0, 0, 0, 304, 0, 1, 0]"] ;
211 -> 212 ;
213 [label="gini = 0.0\nsamples = 1\nvalue = [0, 0, 1, 0, 0, 0, 0, 0, 0, 0]"] ;
212 -> 213 ;
214 [label="X[165] <= 1.052\ngini = 0.019\nsamples = 307\nvalue = [0, 0, 2, 0, 0, 0, 304, 0, 1, 0]"] ;
212 -> 214 ;
215 [label="X[123] <= 0.0\ngini = 0.013\nsamples = 306\nvalue = [0, 0, 1, 0, 0, 0, 304, 0, 1, 0]"] ;
214 -> 215 ;
216 [label="X[103] <= 0.0\ngini = 0.007\nsamples = 301\nvalue = [0, 0, 1, 0, 0, 0, 300, 0, 0, 0]"] ;
215 -> 216 ;
217 [label="gini = 0.0\nsamples = 296\nvalue = [0, 0, 0, 0, 0, 0, 296, 0, 0, 0]"] ;
216 -> 217 ;
218 [label="X[246] <= 0.741\ngini = 0.32\nsamples = 5\nvalue = [0, 0, 1, 0, 0, 0, 4, 0, 0, 0]"] ;
216 -> 218 ;
219 [label="gini = 0.0\nsamples = 1\nvalue = [0, 0, 1, 0, 0, 0, 0, 0, 0, 0]"] ;
218 -> 219 ;
220 [label="gini = 0.0\nsamples = 4\nvalue = [0, 0, 0, 0, 0, 0, 4, 0, 0, 0]"] ;
218 -> 220 ;
221 [label="X[167] <= 0.57\ngini = 0.32\nsamples = 5\nvalue = [0, 0, 0, 0, 0, 0, 4, 0, 1, 0]"] ;
215 -> 221 ;
222 [label="gini = 0.0\nsamples = 4\nvalue = [0, 0, 0, 0, 0, 0, 4, 0, 0, 0]"] ;
221 -> 222 ;
223 [label="gini = 0.0\nsamples = 1\nvalue = [0, 0, 0, 0, 0, 0, 0, 0, 1, 0]"] ;
221 -> 223 ;
224 [label="gini = 0.0\nsamples = 1\nvalue = [0, 0, 1, 0, 0, 0, 0, 0, 0, 0]"] ;
214 -> 224 ;
225 [label="gini = 0.0\nsamples = 1\nvalue = [0, 0, 0, 0, 0, 0, 0, 0, 1, 0]"] ;
211 -> 225 ;
226 [label="gini = 0.0\nsamples = 1\nvalue = [0, 0, 0, 0, 0, 0, 0, 0, 1, 0]"] ;
210 -> 226 ;
227 [label="X[271] <= -0.019\ngini = 0.5\nsamples = 2\nvalue = [0, 1, 1, 0, 0, 0, 0, 0, 0, 0]"] ;
209 -> 227 ;
228 [label="gini = 0.0\nsamples = 1\nvalue = [0, 0, 1, 0, 0, 0, 0, 0, 0, 0]"] ;
227 -> 228 ;
229 [label="gini = 0.0\nsamples = 1\nvalue = [0, 1, 0, 0, 0, 0, 0, 0, 0, 0]"] ;
227 -> 229 ;
230 [label="X[257] <= 0.424\ngini = 0.444\nsamples = 3\nvalue = [0, 2, 0, 1, 0, 0, 0, 0, 0, 0]"] ;
204 -> 230 ;
231 [label="gini = 0.0\nsamples = 2\nvalue = [0, 2, 0, 0, 0, 0, 0, 0, 0, 0]"] ;
230 -> 231 ;
232 [label="gini = 0.0\nsamples = 1\nvalue = [0, 0, 0, 1, 0, 0, 0, 0, 0, 0]"] ;
230 -> 232 ;
233 [label="gini = 0.0\nsamples = 4\nvalue = [0, 4, 0, 0, 0, 0, 0, 0, 0, 0]"] ;
203 -> 233 ;
234 [label="X[218] <= 0.086\ngini = 0.791\nsamples = 30\nvalue = [3, 1, 7, 0, 4, 0, 8, 0, 7, 0]"] ;
202 -> 234 ;
235 [label="X[125] <= 0.479\ngini = 0.764\nsamples = 23\nvalue = [3, 1, 7, 0, 4, 0, 1, 0, 7, 0]"] ;
234 -> 235 ;
236 [label="X[325] <= 0.205\ngini = 0.734\nsamples = 17\nvalue = [3, 1, 1, 0, 4, 0, 1, 0, 7, 0]"] ;
235 -> 236 ;
237 [label="X[207] <= 0.946\ngini = 0.639\nsamples = 13\nvalue = [3, 1, 1, 0, 0, 0, 1, 0, 7, 0]"] ;
236 -> 237 ;
238 [label="X[91] <= -0.002\ngini = 0.219\nsamples = 8\nvalue = [0, 0, 1, 0, 0, 0, 0, 0, 7, 0]"] ;
237 -> 238 ;
239 [label="gini = 0.0\nsamples = 1\nvalue = [0, 0, 1, 0, 0, 0, 0, 0, 0, 0]"] ;
238 -> 239 ;
240 [label="gini = 0.0\nsamples = 7\nvalue = [0, 0, 0, 0, 0, 0, 0, 0, 7, 0]"] ;
238 -> 240 ;
241 [label="X[254] <= 0.08\ngini = 0.56\nsamples = 5\nvalue = [3, 1, 0, 0, 0, 0, 1, 0, 0, 0]"] ;
237 -> 241 ;
242 [label="gini = 0.0\nsamples = 3\nvalue = [3, 0, 0, 0, 0, 0, 0, 0, 0, 0]"] ;
241 -> 242 ;
243 [label="X[65] <= -0.01\ngini = 0.5\nsamples = 2\nvalue = [0, 1, 0, 0, 0, 0, 1, 0, 0, 0]"] ;
241 -> 243 ;
244 [label="gini = 0.0\nsamples = 1\nvalue = [0, 1, 0, 0, 0, 0, 0, 0, 0, 0]"] ;
243 -> 244 ;
245 [label="gini = 0.0\nsamples = 1\nvalue = [0, 0, 0, 0, 0, 0, 1, 0, 0, 0]"] ;
243 -> 245 ;
246 [label="gini = 0.0\nsamples = 4\nvalue = [0, 0, 0, 0, 4, 0, 0, 0, 0, 0]"] ;
236 -> 246 ;
247 [label="gini = 0.0\nsamples = 6\nvalue = [0, 0, 6, 0, 0, 0, 0, 0, 0, 0]"] ;
235 -> 247 ;
248 [label="gini = 0.0\nsamples = 7\nvalue = [0, 0, 0, 0, 0, 0, 7, 0, 0, 0]"] ;
234 -> 248 ;
249 [label="X[225] <= 0.013\ngini = 0.786\nsamples = 86\nvalue = [0, 8, 1, 20, 3, 10, 15, 0, 28, 1]"] ;
201 -> 249 ;
250 [label="X[267] <= 0.192\ngini = 0.535\nsamples = 29\nvalue = [0, 1, 0, 17, 0, 10, 0, 0, 1, 0]"] ;
249 -> 250 ;
251 [label="X[267] <= -0.052\ngini = 0.198\nsamples = 9\nvalue = [0, 1, 0, 0, 0, 8, 0, 0, 0, 0]"] ;
250 -> 251 ;
252 [label="gini = 0.0\nsamples = 1\nvalue = [0, 1, 0, 0, 0, 0, 0, 0, 0, 0]"] ;
251 -> 252 ;
253 [label="gini = 0.0\nsamples = 8\nvalue = [0, 0, 0, 0, 0, 8, 0, 0, 0, 0]"] ;
251 -> 253 ;
254 [label="X[367] <= -0.002\ngini = 0.265\nsamples = 20\nvalue = [0, 0, 0, 17, 0, 2, 0, 0, 1, 0]"] ;
250 -> 254 ;
255 [label="gini = 0.0\nsamples = 2\nvalue = [0, 0, 0, 0, 0, 2, 0, 0, 0, 0]"] ;
254 -> 255 ;
256 [label="X[351] <= -0.024\ngini = 0.105\nsamples = 18\nvalue = [0, 0, 0, 17, 0, 0, 0, 0, 1, 0]"] ;
254 -> 256 ;
257 [label="gini = 0.0\nsamples = 1\nvalue = [0, 0, 0, 0, 0, 0, 0, 0, 1, 0]"] ;
256 -> 257 ;
258 [label="gini = 0.0\nsamples = 17\nvalue = [0, 0, 0, 17, 0, 0, 0, 0, 0, 0]"] ;
256 -> 258 ;
259 [label="X[110] <= 0.222\ngini = 0.685\nsamples = 57\nvalue = [0, 7, 1, 3, 3, 0, 15, 0, 27, 1]"] ;
249 -> 259 ;
260 [label="X[134] <= 0.028\ngini = 0.621\nsamples = 26\nvalue = [0, 7, 1, 0, 3, 0, 14, 0, 0, 1]"] ;
259 -> 260 ;
261 [label="X[49] <= -0.021\ngini = 0.124\nsamples = 15\nvalue = [0, 0, 0, 0, 0, 0, 14, 0, 0, 1]"] ;
260 -> 261 ;
262 [label="gini = 0.0\nsamples = 1\nvalue = [0, 0, 0, 0, 0, 0, 0, 0, 0, 1]"] ;
261 -> 262 ;
263 [label="gini = 0.0\nsamples = 14\nvalue = [0, 0, 0, 0, 0, 0, 14, 0, 0, 0]"] ;
261 -> 263 ;
264 [label="X[208] <= 0.495\ngini = 0.512\nsamples = 11\nvalue = [0, 7, 1, 0, 3, 0, 0, 0, 0, 0]"] ;
260 -> 264 ;
265 [label="gini = 0.0\nsamples = 7\nvalue = [0, 7, 0, 0, 0, 0, 0, 0, 0, 0]"] ;
264 -> 265 ;
266 [label="X[76] <= -0.0\ngini = 0.375\nsamples = 4\nvalue = [0, 0, 1, 0, 3, 0, 0, 0, 0, 0]"] ;
264 -> 266 ;
267 [label="gini = 0.0\nsamples = 3\nvalue = [0, 0, 0, 0, 3, 0, 0, 0, 0, 0]"] ;
266 -> 267 ;
268 [label="gini = 0.0\nsamples = 1\nvalue = [0, 0, 1, 0, 0, 0, 0, 0, 0, 0]"] ;
266 -> 268 ;
269 [label="X[243] <= 0.0\ngini = 0.231\nsamples = 31\nvalue = [0, 0, 0, 3, 0, 0, 1, 0, 27, 0]"] ;
259 -> 269 ;
270 [label="X[217] <= -0.041\ngini = 0.069\nsamples = 28\nvalue = [0, 0, 0, 0, 0, 0, 1, 0, 27, 0]"] ;
269 -> 270 ;
271 [label="gini = 0.0\nsamples = 1\nvalue = [0, 0, 0, 0, 0, 0, 1, 0, 0, 0]"] ;
270 -> 271 ;
272 [label="gini = 0.0\nsamples = 27\nvalue = [0, 0, 0, 0, 0, 0, 0, 0, 27, 0]"] ;
270 -> 272 ;
273 [label="gini = 0.0\nsamples = 3\nvalue = [0, 0, 0, 3, 0, 0, 0, 0, 0, 0]"] ;
269 -> 273 ;
274 [label="X[252] <= 0.019\ngini = 0.679\nsamples = 366\nvalue = [197, 26, 32, 4, 17, 11, 22, 27, 30, 0]"] ;
200 -> 274 ;
275 [label="X[146] <= 0.0\ngini = 0.341\nsamples = 224\nvalue = [181, 7, 7, 1, 2, 3, 8, 8, 7, 0]"] ;
274 -> 275 ;
276 [label="X[225] <= 0.92\ngini = 0.156\nsamples = 195\nvalue = [179, 2, 3, 0, 2, 2, 2, 3, 2, 0]"] ;
275 -> 276 ;
277 [label="X[209] <= 0.517\ngini = 0.083\nsamples = 187\nvalue = [179, 1, 1, 0, 1, 2, 1, 1, 1, 0]"] ;
276 -> 277 ;
278 [label="X[248] <= 0.26\ngini = 0.72\nsamples = 5\nvalue = [0, 0, 1, 0, 0, 2, 1, 0, 1, 0]"] ;
277 -> 278 ;
279 [label="gini = 0.0\nsamples = 2\nvalue = [0, 0, 0, 0, 0, 2, 0, 0, 0, 0]"] ;
278 -> 279 ;
280 [label="X[173] <= 0.143\ngini = 0.667\nsamples = 3\nvalue = [0, 0, 1, 0, 0, 0, 1, 0, 1, 0]"] ;
278 -> 280 ;
281 [label="gini = 0.0\nsamples = 1\nvalue = [0, 0, 1, 0, 0, 0, 0, 0, 0, 0]"] ;
280 -> 281 ;
282 [label="X[285] <= 0.743\ngini = 0.5\nsamples = 2\nvalue = [0, 0, 0, 0, 0, 0, 1, 0, 1, 0]"] ;
280 -> 282 ;
283 [label="gini = 0.0\nsamples = 1\nvalue = [0, 0, 0, 0, 0, 0, 0, 0, 1, 0]"] ;
282 -> 283 ;
284 [label="gini = 0.0\nsamples = 1\nvalue = [0, 0, 0, 0, 0, 0, 1, 0, 0, 0]"] ;
282 -> 284 ;
285 [label="X[345] <= 0.041\ngini = 0.033\nsamples = 182\nvalue = [179, 1, 0, 0, 1, 0, 0, 1, 0, 0]"] ;
277 -> 285 ;
286 [label="X[104] <= 0.6\ngini = 0.011\nsamples = 180\nvalue = [179, 1, 0, 0, 0, 0, 0, 0, 0, 0]"] ;
285 -> 286 ;
287 [label="gini = 0.0\nsamples = 179\nvalue = [179, 0, 0, 0, 0, 0, 0, 0, 0, 0]"] ;
286 -> 287 ;
288 [label="gini = 0.0\nsamples = 1\nvalue = [0, 1, 0, 0, 0, 0, 0, 0, 0, 0]"] ;
286 -> 288 ;
289 [label="X[364] <= -0.009\ngini = 0.5\nsamples = 2\nvalue = [0, 0, 0, 0, 1, 0, 0, 1, 0, 0]"] ;
285 -> 289 ;
290 [label="gini = 0.0\nsamples = 1\nvalue = [0, 0, 0, 0, 1, 0, 0, 0, 0, 0]"] ;
289 -> 290 ;
291 [label="gini = 0.0\nsamples = 1\nvalue = [0, 0, 0, 0, 0, 0, 0, 1, 0, 0]"] ;
289 -> 291 ;
292 [label="X[290] <= 0.014\ngini = 0.812\nsamples = 8\nvalue = [0, 1, 2, 0, 1, 0, 1, 2, 1, 0]"] ;
276 -> 292 ;
293 [label="X[327] <= 0.002\ngini = 0.778\nsamples = 6\nvalue = [0, 1, 0, 0, 1, 0, 1, 2, 1, 0]"] ;
292 -> 293 ;
294 [label="X[262] <= 0.008\ngini = 0.75\nsamples = 4\nvalue = [0, 1, 0, 0, 1, 0, 1, 0, 1, 0]"] ;
293 -> 294 ;
295 [label="X[305] <= -0.001\ngini = 0.667\nsamples = 3\nvalue = [0, 1, 0, 0, 0, 0, 1, 0, 1, 0]"] ;
294 -> 295 ;
296 [label="gini = 0.0\nsamples = 1\nvalue = [0, 0, 0, 0, 0, 0, 0, 0, 1, 0]"] ;
295 -> 296 ;
297 [label="X[289] <= -0.012\ngini = 0.5\nsamples = 2\nvalue = [0, 1, 0, 0, 0, 0, 1, 0, 0, 0]"] ;
295 -> 297 ;
298 [label="gini = 0.0\nsamples = 1\nvalue = [0, 0, 0, 0, 0, 0, 1, 0, 0, 0]"] ;
297 -> 298 ;
299 [label="gini = 0.0\nsamples = 1\nvalue = [0, 1, 0, 0, 0, 0, 0, 0, 0, 0]"] ;
297 -> 299 ;
300 [label="gini = 0.0\nsamples = 1\nvalue = [0, 0, 0, 0, 1, 0, 0, 0, 0, 0]"] ;
294 -> 300 ;
301 [label="gini = 0.0\nsamples = 2\nvalue = [0, 0, 0, 0, 0, 0, 0, 2, 0, 0]"] ;
293 -> 301 ;
302 [label="gini = 0.0\nsamples = 2\nvalue = [0, 0, 2, 0, 0, 0, 0, 0, 0, 0]"] ;
292 -> 302 ;
303 [label="X[170] <= -0.018\ngini = 0.842\nsamples = 29\nvalue = [2, 5, 4, 1, 0, 1, 6, 5, 5, 0]"] ;
275 -> 303 ;
304 [label="gini = 0.0\nsamples = 5\nvalue = [0, 0, 0, 0, 0, 0, 5, 0, 0, 0]"] ;
303 -> 304 ;
305 [label="X[257] <= 0.001\ngini = 0.83\nsamples = 24\nvalue = [2, 5, 4, 1, 0, 1, 1, 5, 5, 0]"] ;
303 -> 305 ;
306 [label="X[228] <= 0.757\ngini = 0.795\nsamples = 20\nvalue = [2, 5, 0, 1, 0, 1, 1, 5, 5, 0]"] ;
305 -> 306 ;
307 [label="X[273] <= 0.0\ngini = 0.686\nsamples = 13\nvalue = [0, 0, 0, 1, 0, 1, 1, 5, 5, 0]"] ;
306 -> 307 ;
308 [label="X[168] <= 0.166\ngini = 0.449\nsamples = 7\nvalue = [0, 0, 0, 1, 0, 0, 1, 5, 0, 0]"] ;
307 -> 308 ;
309 [label="X[307] <= -0.009\ngini = 0.5\nsamples = 2\nvalue = [0, 0, 0, 1, 0, 0, 1, 0, 0, 0]"] ;
308 -> 309 ;
310 [label="gini = 0.0\nsamples = 1\nvalue = [0, 0, 0, 0, 0, 0, 1, 0, 0, 0]"] ;
309 -> 310 ;
311 [label="gini = 0.0\nsamples = 1\nvalue = [0, 0, 0, 1, 0, 0, 0, 0, 0, 0]"] ;
309 -> 311 ;
312 [label="gini = 0.0\nsamples = 5\nvalue = [0, 0, 0, 0, 0, 0, 0, 5, 0, 0]"] ;
308 -> 312 ;
313 [label="X[316] <= -0.006\ngini = 0.278\nsamples = 6\nvalue = [0, 0, 0, 0, 0, 1, 0, 0, 5, 0]"] ;
307 -> 313 ;
314 [label="gini = 0.0\nsamples = 1\nvalue = [0, 0, 0, 0, 0, 1, 0, 0, 0, 0]"] ;
313 -> 314 ;
315 [label="gini = 0.0\nsamples = 5\nvalue = [0, 0, 0, 0, 0, 0, 0, 0, 5, 0]"] ;
313 -> 315 ;
316 [label="X[209] <= 0.879\ngini = 0.408\nsamples = 7\nvalue = [2, 5, 0, 0, 0, 0, 0, 0, 0, 0]"] ;
306 -> 316 ;
317 [label="gini = 0.0\nsamples = 5\nvalue = [0, 5, 0, 0, 0, 0, 0, 0, 0, 0]"] ;
316 -> 317 ;
318 [label="gini = 0.0\nsamples = 2\nvalue = [2, 0, 0, 0, 0, 0, 0, 0, 0, 0]"] ;
316 -> 318 ;
319 [label="gini = 0.0\nsamples = 4\nvalue = [0, 0, 4, 0, 0, 0, 0, 0, 0, 0]"] ;
305 -> 319 ;
320 [label="X[248] <= 0.077\ngini = 0.87\nsamples = 142\nvalue = [16, 19, 25, 3, 15, 8, 14, 19, 23, 0]"] ;
274 -> 320 ;
321 [label="X[324] <= 0.001\ngini = 0.722\nsamples = 45\nvalue = [16, 4, 8, 1, 15, 0, 0, 1, 0, 0]"] ;
320 -> 321 ;
322 [label="X[210] <= 0.969\ngini = 0.647\nsamples = 31\nvalue = [16, 4, 8, 1, 1, 0, 0, 1, 0, 0]"] ;
321 -> 322 ;
323 [label="X[152] <= 0.001\ngini = 0.672\nsamples = 16\nvalue = [1, 4, 8, 1, 1, 0, 0, 1, 0, 0]"] ;
322 -> 323 ;
324 [label="X[342] <= -0.001\ngini = 0.198\nsamples = 9\nvalue = [0, 0, 8, 0, 1, 0, 0, 0, 0, 0]"] ;
323 -> 324 ;
325 [label="gini = 0.0\nsamples = 1\nvalue = [0, 0, 0, 0, 1, 0, 0, 0, 0, 0]"] ;
324 -> 325 ;
326 [label="gini = 0.0\nsamples = 8\nvalue = [0, 0, 8, 0, 0, 0, 0, 0, 0, 0]"] ;
324 -> 326 ;
327 [label="X[129] <= 0.0\ngini = 0.612\nsamples = 7\nvalue = [1, 4, 0, 1, 0, 0, 0, 1, 0, 0]"] ;
323 -> 327 ;
328 [label="X[243] <= -0.007\ngini = 0.667\nsamples = 3\nvalue = [1, 0, 0, 1, 0, 0, 0, 1, 0, 0]"] ;
327 -> 328 ;
329 [label="gini = 0.0\nsamples = 1\nvalue = [0, 0, 0, 1, 0, 0, 0, 0, 0, 0]"] ;
328 -> 329 ;
330 [label="X[105] <= -0.005\ngini = 0.5\nsamples = 2\nvalue = [1, 0, 0, 0, 0, 0, 0, 1, 0, 0]"] ;
328 -> 330 ;
331 [label="gini = 0.0\nsamples = 1\nvalue = [0, 0, 0, 0, 0, 0, 0, 1, 0, 0]"] ;
330 -> 331 ;
332 [label="gini = 0.0\nsamples = 1\nvalue = [1, 0, 0, 0, 0, 0, 0, 0, 0, 0]"] ;
330 -> 332 ;
333 [label="gini = 0.0\nsamples = 4\nvalue = [0, 4, 0, 0, 0, 0, 0, 0, 0, 0]"] ;
327 -> 333 ;
334 [label="gini = 0.0\nsamples = 15\nvalue = [15, 0, 0, 0, 0, 0, 0, 0, 0, 0]"] ;
322 -> 334 ;
335 [label="gini = 0.0\nsamples = 14\nvalue = [0, 0, 0, 0, 14, 0, 0, 0, 0, 0]"] ;
321 -> 335 ;
336 [label="X[110] <= 0.001\ngini = 0.827\nsamples = 97\nvalue = [0, 15, 17, 2, 0, 8, 14, 18, 23, 0]"] ;
320 -> 336 ;
337 [label="X[168] <= 0.135\ngini = 0.79\nsamples = 70\nvalue = [0, 14, 17, 0, 0, 1, 13, 18, 7, 0]"] ;
336 -> 337 ;
338 [label="X[313] <= 0.155\ngini = 0.682\nsamples = 41\nvalue = [0, 14, 13, 0, 0, 1, 13, 0, 0, 0]"] ;
337 -> 338 ;
339 [label="X[213] <= 0.603\ngini = 0.613\nsamples = 30\nvalue = [0, 3, 13, 0, 0, 1, 13, 0, 0, 0]"] ;
338 -> 339 ;
340 [label="X[151] <= 0.185\ngini = 0.398\nsamples = 16\nvalue = [0, 3, 12, 0, 0, 1, 0, 0, 0, 0]"] ;
339 -> 340 ;
341 [label="gini = 0.0\nsamples = 12\nvalue = [0, 0, 12, 0, 0, 0, 0, 0, 0, 0]"] ;
340 -> 341 ;
342 [label="X[326] <= -0.002\ngini = 0.375\nsamples = 4\nvalue = [0, 3, 0, 0, 0, 1, 0, 0, 0, 0]"] ;
340 -> 342 ;
343 [label="gini = 0.0\nsamples = 1\nvalue = [0, 0, 0, 0, 0, 1, 0, 0, 0, 0]"] ;
342 -> 343 ;
344 [label="gini = 0.0\nsamples = 3\nvalue = [0, 3, 0, 0, 0, 0, 0, 0, 0, 0]"] ;
342 -> 344 ;
345 [label="X[326] <= 0.531\ngini = 0.133\nsamples = 14\nvalue = [0, 0, 1, 0, 0, 0, 13, 0, 0, 0]"] ;
339 -> 345 ;
346 [label="gini = 0.0\nsamples = 13\nvalue = [0, 0, 0, 0, 0, 0, 13, 0, 0, 0]"] ;
345 -> 346 ;
347 [label="gini = 0.0\nsamples = 1\nvalue = [0, 0, 1, 0, 0, 0, 0, 0, 0, 0]"] ;
345 -> 347 ;
348 [label="gini = 0.0\nsamples = 11\nvalue = [0, 11, 0, 0, 0, 0, 0, 0, 0, 0]"] ;
338 -> 348 ;
349 [label="X[191] <= 0.452\ngini = 0.537\nsamples = 29\nvalue = [0, 0, 4, 0, 0, 0, 0, 18, 7, 0]"] ;
337 -> 349 ;
350 [label="X[232] <= 0.722\ngini = 0.463\nsamples = 11\nvalue = [0, 0, 4, 0, 0, 0, 0, 0, 7, 0]"] ;
349 -> 350 ;
351 [label="gini = 0.0\nsamples = 4\nvalue = [0, 0, 4, 0, 0, 0, 0, 0, 0, 0]"] ;
350 -> 351 ;
352 [label="gini = 0.0\nsamples = 7\nvalue = [0, 0, 0, 0, 0, 0, 0, 0, 7, 0]"] ;
350 -> 352 ;
353 [label="gini = 0.0\nsamples = 18\nvalue = [0, 0, 0, 0, 0, 0, 0, 18, 0, 0]"] ;
349 -> 353 ;
354 [label="X[329] <= 0.0\ngini = 0.573\nsamples = 27\nvalue = [0, 1, 0, 2, 0, 7, 1, 0, 16, 0]"] ;
336 -> 354 ;
355 [label="X[229] <= 0.066\ngini = 0.198\nsamples = 18\nvalue = [0, 0, 0, 2, 0, 0, 0, 0, 16, 0]"] ;
354 -> 355 ;
356 [label="gini = 0.0\nsamples = 2\nvalue = [0, 0, 0, 2, 0, 0, 0, 0, 0, 0]"] ;
355 -> 356 ;
357 [label="gini = 0.0\nsamples = 16\nvalue = [0, 0, 0, 0, 0, 0, 0, 0, 16, 0]"] ;
355 -> 357 ;
358 [label="X[106] <= 0.875\ngini = 0.37\nsamples = 9\nvalue = [0, 1, 0, 0, 0, 7, 1, 0, 0, 0]"] ;
354 -> 358 ;
359 [label="gini = 0.0\nsamples = 7\nvalue = [0, 0, 0, 0, 0, 7, 0, 0, 0, 0]"] ;
358 -> 359 ;
360 [label="X[83] <= -0.001\ngini = 0.5\nsamples = 2\nvalue = [0, 1, 0, 0, 0, 0, 1, 0, 0, 0]"] ;
358 -> 360 ;
361 [label="gini = 0.0\nsamples = 1\nvalue = [0, 0, 0, 0, 0, 0, 1, 0, 0, 0]"] ;
360 -> 361 ;
362 [label="gini = 0.0\nsamples = 1\nvalue = [0, 1, 0, 0, 0, 0, 0, 0, 0, 0]"] ;
360 -> 362 ;
363 [label="X[205] <= 0.239\ngini = 0.779\nsamples = 1278\nvalue = [5, 42, 67, 392, 194, 66, 57, 62, 389, 4]"] ;
199 -> 363 ;
364 [label="X[207] <= 0.399\ngini = 0.557\nsamples = 523\nvalue = [5, 11, 2, 334, 72, 60, 19, 8, 11, 1]"] ;
363 -> 364 ;
365 [label="X[182] <= 0.124\ngini = 0.321\nsamples = 399\nvalue = [1, 3, 1, 325, 8, 48, 6, 4, 3, 0]"] ;
364 -> 365 ;
366 [label="X[142] <= 0.117\ngini = 0.188\nsamples = 361\nvalue = [1, 3, 1, 325, 8, 10, 6, 4, 3, 0]"] ;
365 -> 366 ;
367 [label="X[75] <= -0.003\ngini = 0.142\nsamples = 351\nvalue = [1, 3, 1, 325, 8, 1, 6, 3, 3, 0]"] ;
366 -> 367 ;
368 [label="X[172] <= 0.727\ngini = 0.642\nsamples = 9\nvalue = [1, 1, 0, 1, 5, 0, 0, 1, 0, 0]"] ;
367 -> 368 ;
369 [label="gini = 0.0\nsamples = 5\nvalue = [0, 0, 0, 0, 5, 0, 0, 0, 0, 0]"] ;
368 -> 369 ;
370 [label="X[175] <= -0.027\ngini = 0.75\nsamples = 4\nvalue = [1, 1, 0, 1, 0, 0, 0, 1, 0, 0]"] ;
368 -> 370 ;
371 [label="gini = 0.0\nsamples = 1\nvalue = [0, 1, 0, 0, 0, 0, 0, 0, 0, 0]"] ;
370 -> 371 ;
372 [label="X[94] <= 0.325\ngini = 0.667\nsamples = 3\nvalue = [1, 0, 0, 1, 0, 0, 0, 1, 0, 0]"] ;
370 -> 372 ;
373 [label="gini = 0.0\nsamples = 1\nvalue = [0, 0, 0, 0, 0, 0, 0, 1, 0, 0]"] ;
372 -> 373 ;
374 [label="X[292] <= 0.427\ngini = 0.5\nsamples = 2\nvalue = [1, 0, 0, 1, 0, 0, 0, 0, 0, 0]"] ;
372 -> 374 ;
375 [label="gini = 0.0\nsamples = 1\nvalue = [1, 0, 0, 0, 0, 0, 0, 0, 0, 0]"] ;
374 -> 375 ;
376 [label="gini = 0.0\nsamples = 1\nvalue = [0, 0, 0, 1, 0, 0, 0, 0, 0, 0]"] ;
374 -> 376 ;
377 [label="X[368] <= -0.01\ngini = 0.102\nsamples = 342\nvalue = [0, 2, 1, 324, 3, 1, 6, 2, 3, 0]"] ;
367 -> 377 ;
378 [label="X[109] <= 0.02\ngini = 0.64\nsamples = 5\nvalue = [0, 0, 0, 1, 0, 0, 2, 2, 0, 0]"] ;
377 -> 378 ;
379 [label="gini = 0.0\nsamples = 2\nvalue = [0, 0, 0, 0, 0, 0, 0, 2, 0, 0]"] ;
378 -> 379 ;
380 [label="X[189] <= 0.508\ngini = 0.444\nsamples = 3\nvalue = [0, 0, 0, 1, 0, 0, 2, 0, 0, 0]"] ;
378 -> 380 ;
381 [label="gini = 0.0\nsamples = 1\nvalue = [0, 0, 0, 1, 0, 0, 0, 0, 0, 0]"] ;
380 -> 381 ;
382 [label="gini = 0.0\nsamples = 2\nvalue = [0, 0, 0, 0, 0, 0, 2, 0, 0, 0]"] ;
380 -> 382 ;
383 [label="X[188] <= 0.883\ngini = 0.081\nsamples = 337\nvalue = [0, 2, 1, 323, 3, 1, 4, 0, 3, 0]"] ;
377 -> 383 ;
384 [label="X[179] <= 0.044\ngini = 0.065\nsamples = 334\nvalue = [0, 0, 1, 323, 3, 1, 4, 0, 2, 0]"] ;
383 -> 384 ;
385 [label="X[203] <= -0.029\ngini = 0.053\nsamples = 332\nvalue = [0, 0, 1, 323, 3, 1, 2, 0, 2, 0]"] ;
384 -> 385 ;
386 [label="X[235] <= -0.005\ngini = 0.667\nsamples = 3\nvalue = [0, 0, 0, 0, 1, 0, 1, 0, 1, 0]"] ;
385 -> 386 ;
387 [label="gini = 0.0\nsamples = 1\nvalue = [0, 0, 0, 0, 0, 0, 0, 0, 1, 0]"] ;
386 -> 387 ;
388 [label="X[109] <= -0.03\ngini = 0.5\nsamples = 2\nvalue = [0, 0, 0, 0, 1, 0, 1, 0, 0, 0]"] ;
386 -> 388 ;
389 [label="gini = 0.0\nsamples = 1\nvalue = [0, 0, 0, 0, 1, 0, 0, 0, 0, 0]"] ;
388 -> 389 ;
390 [label="gini = 0.0\nsamples = 1\nvalue = [0, 0, 0, 0, 0, 0, 1, 0, 0, 0]"] ;
388 -> 390 ;
391 [label="X[133] <= 0.955\ngini = 0.036\nsamples = 329\nvalue = [0, 0, 1, 323, 2, 1, 1, 0, 1, 0]"] ;
385 -> 391 ;
392 [label="X[34] <= 0.043\ngini = 0.024\nsamples = 327\nvalue = [0, 0, 1, 323, 1, 0, 1, 0, 1, 0]"] ;
391 -> 392 ;
393 [label="X[353] <= -0.047\ngini = 0.018\nsamples = 326\nvalue = [0, 0, 1, 323, 1, 0, 0, 0, 1, 0]"] ;
392 -> 393 ;
394 [label="gini = 0.0\nsamples = 1\nvalue = [0, 0, 1, 0, 0, 0, 0, 0, 0, 0]"] ;
393 -> 394 ;
395 [label="X[299] <= 0.002\ngini = 0.012\nsamples = 325\nvalue = [0, 0, 0, 323, 1, 0, 0, 0, 1, 0]"] ;
393 -> 395 ;
396 [label="X[322] <= -0.051\ngini = 0.006\nsamples = 324\nvalue = [0, 0, 0, 323, 1, 0, 0, 0, 0, 0]"] ;
395 -> 396 ;
397 [label="gini = 0.0\nsamples = 1\nvalue = [0, 0, 0, 0, 1, 0, 0, 0, 0, 0]"] ;
396 -> 397 ;
398 [label="gini = 0.0\nsamples = 323\nvalue = [0, 0, 0, 323, 0, 0, 0, 0, 0, 0]"] ;
396 -> 398 ;
399 [label="gini = 0.0\nsamples = 1\nvalue = [0, 0, 0, 0, 0, 0, 0, 0, 1, 0]"] ;
395 -> 399 ;
400 [label="gini = 0.0\nsamples = 1\nvalue = [0, 0, 0, 0, 0, 0, 1, 0, 0, 0]"] ;
392 -> 400 ;
401 [label="X[227] <= -0.033\ngini = 0.5\nsamples = 2\nvalue = [0, 0, 0, 0, 1, 1, 0, 0, 0, 0]"] ;
391 -> 401 ;
402 [label="gini = 0.0\nsamples = 1\nvalue = [0, 0, 0, 0, 0, 1, 0, 0, 0, 0]"] ;
401 -> 402 ;
403 [label="gini = 0.0\nsamples = 1\nvalue = [0, 0, 0, 0, 1, 0, 0, 0, 0, 0]"] ;
401 -> 403 ;
404 [label="gini = 0.0\nsamples = 2\nvalue = [0, 0, 0, 0, 0, 0, 2, 0, 0, 0]"] ;
384 -> 404 ;
405 [label="X[314] <= -0.018\ngini = 0.444\nsamples = 3\nvalue = [0, 2, 0, 0, 0, 0, 0, 0, 1, 0]"] ;
383 -> 405 ;
406 [label="gini = 0.0\nsamples = 1\nvalue = [0, 0, 0, 0, 0, 0, 0, 0, 1, 0]"] ;
405 -> 406 ;
407 [label="gini = 0.0\nsamples = 2\nvalue = [0, 2, 0, 0, 0, 0, 0, 0, 0, 0]"] ;
405 -> 407 ;
408 [label="X[317] <= -0.001\ngini = 0.18\nsamples = 10\nvalue = [0, 0, 0, 0, 0, 9, 0, 1, 0, 0]"] ;
366 -> 408 ;
409 [label="gini = 0.0\nsamples = 1\nvalue = [0, 0, 0, 0, 0, 0, 0, 1, 0, 0]"] ;
408 -> 409 ;
410 [label="gini = 0.0\nsamples = 9\nvalue = [0, 0, 0, 0, 0, 9, 0, 0, 0, 0]"] ;
408 -> 410 ;
411 [label="gini = 0.0\nsamples = 38\nvalue = [0, 0, 0, 0, 0, 38, 0, 0, 0, 0]"] ;
365 -> 411 ;
412 [label="X[346] <= 0.076\ngini = 0.697\nsamples = 124\nvalue = [4, 8, 1, 9, 64, 12, 13, 4, 8, 1]"] ;
364 -> 412 ;
413 [label="X[282] <= 0.228\ngini = 0.861\nsamples = 68\nvalue = [4, 8, 1, 9, 10, 12, 13, 2, 8, 1]"] ;
412 -> 413 ;
414 [label="X[94] <= 0.052\ngini = 0.849\nsamples = 57\nvalue = [4, 7, 1, 9, 10, 2, 13, 2, 8, 1]"] ;
413 -> 414 ;
415 [label="X[150] <= 0.364\ngini = 0.819\nsamples = 46\nvalue = [3, 7, 1, 9, 2, 2, 13, 1, 8, 0]"] ;
414 -> 415 ;
416 [label="X[153] <= 0.14\ngini = 0.585\nsamples = 20\nvalue = [2, 4, 0, 1, 0, 0, 12, 0, 1, 0]"] ;
415 -> 416 ;
417 [label="X[82] <= -0.018\ngini = 0.142\nsamples = 13\nvalue = [0, 0, 0, 1, 0, 0, 12, 0, 0, 0]"] ;
416 -> 417 ;
418 [label="gini = 0.0\nsamples = 1\nvalue = [0, 0, 0, 1, 0, 0, 0, 0, 0, 0]"] ;
417 -> 418 ;
419 [label="gini = 0.0\nsamples = 12\nvalue = [0, 0, 0, 0, 0, 0, 12, 0, 0, 0]"] ;
417 -> 419 ;
420 [label="X[284] <= 0.01\ngini = 0.571\nsamples = 7\nvalue = [2, 4, 0, 0, 0, 0, 0, 0, 1, 0]"] ;
416 -> 420 ;
421 [label="gini = 0.0\nsamples = 4\nvalue = [0, 4, 0, 0, 0, 0, 0, 0, 0, 0]"] ;
420 -> 421 ;
422 [label="X[249] <= 0.571\ngini = 0.444\nsamples = 3\nvalue = [2, 0, 0, 0, 0, 0, 0, 0, 1, 0]"] ;
420 -> 422 ;
423 [label="gini = 0.0\nsamples = 2\nvalue = [2, 0, 0, 0, 0, 0, 0, 0, 0, 0]"] ;
422 -> 423 ;
424 [label="gini = 0.0\nsamples = 1\nvalue = [0, 0, 0, 0, 0, 0, 0, 0, 1, 0]"] ;
422 -> 424 ;
425 [label="X[186] <= 0.517\ngini = 0.802\nsamples = 26\nvalue = [1, 3, 1, 8, 2, 2, 1, 1, 7, 0]"] ;
415 -> 425 ;
426 [label="X[274] <= 0.0\ngini = 0.633\nsamples = 14\nvalue = [1, 0, 0, 8, 1, 2, 1, 1, 0, 0]"] ;
425 -> 426 ;
427 [label="X[149] <= 0.404\ngini = 0.34\nsamples = 10\nvalue = [1, 0, 0, 8, 0, 0, 1, 0, 0, 0]"] ;
426 -> 427 ;
428 [label="X[127] <= 0.524\ngini = 0.5\nsamples = 2\nvalue = [1, 0, 0, 0, 0, 0, 1, 0, 0, 0]"] ;
427 -> 428 ;
429 [label="gini = 0.0\nsamples = 1\nvalue = [1, 0, 0, 0, 0, 0, 0, 0, 0, 0]"] ;
428 -> 429 ;
430 [label="gini = 0.0\nsamples = 1\nvalue = [0, 0, 0, 0, 0, 0, 1, 0, 0, 0]"] ;
428 -> 430 ;
431 [label="gini = 0.0\nsamples = 8\nvalue = [0, 0, 0, 8, 0, 0, 0, 0, 0, 0]"] ;
427 -> 431 ;
432 [label="X[213] <= 0.449\ngini = 0.625\nsamples = 4\nvalue = [0, 0, 0, 0, 1, 2, 0, 1, 0, 0]"] ;
426 -> 432 ;
433 [label="X[168] <= 0.717\ngini = 0.5\nsamples = 2\nvalue = [0, 0, 0, 0, 1, 0, 0, 1, 0, 0]"] ;
432 -> 433 ;
434 [label="gini = 0.0\nsamples = 1\nvalue = [0, 0, 0, 0, 1, 0, 0, 0, 0, 0]"] ;
433 -> 434 ;
435 [label="gini = 0.0\nsamples = 1\nvalue = [0, 0, 0, 0, 0, 0, 0, 1, 0, 0]"] ;
433 -> 435 ;
436 [label="gini = 0.0\nsamples = 2\nvalue = [0, 0, 0, 0, 0, 2, 0, 0, 0, 0]"] ;
432 -> 436 ;
437 [label="X[108] <= 0.012\ngini = 0.583\nsamples = 12\nvalue = [0, 3, 1, 0, 1, 0, 0, 0, 7, 0]"] ;
425 -> 437 ;
438 [label="X[132] <= 0.171\ngini = 0.375\nsamples = 4\nvalue = [0, 3, 1, 0, 0, 0, 0, 0, 0, 0]"] ;
437 -> 438 ;
439 [label="gini = 0.0\nsamples = 1\nvalue = [0, 0, 1, 0, 0, 0, 0, 0, 0, 0]"] ;
438 -> 439 ;
440 [label="gini = 0.0\nsamples = 3\nvalue = [0, 3, 0, 0, 0, 0, 0, 0, 0, 0]"] ;
438 -> 440 ;
441 [label="X[123] <= 0.0\ngini = 0.219\nsamples = 8\nvalue = [0, 0, 0, 0, 1, 0, 0, 0, 7, 0]"] ;
437 -> 441 ;
442 [label="gini = 0.0\nsamples = 7\nvalue = [0, 0, 0, 0, 0, 0, 0, 0, 7, 0]"] ;
441 -> 442 ;
443 [label="gini = 0.0\nsamples = 1\nvalue = [0, 0, 0, 0, 1, 0, 0, 0, 0, 0]"] ;
441 -> 443 ;
444 [label="X[147] <= -0.0\ngini = 0.446\nsamples = 11\nvalue = [1, 0, 0, 0, 8, 0, 0, 1, 0, 1]"] ;
414 -> 444 ;
445 [label="gini = 0.0\nsamples = 8\nvalue = [0, 0, 0, 0, 8, 0, 0, 0, 0, 0]"] ;
444 -> 445 ;
446 [label="X[286] <= 0.579\ngini = 0.667\nsamples = 3\nvalue = [1, 0, 0, 0, 0, 0, 0, 1, 0, 1]"] ;
444 -> 446 ;
447 [label="gini = 0.0\nsamples = 1\nvalue = [1, 0, 0, 0, 0, 0, 0, 0, 0, 0]"] ;
446 -> 447 ;
448 [label="X[252] <= 0.351\ngini = 0.5\nsamples = 2\nvalue = [0, 0, 0, 0, 0, 0, 0, 1, 0, 1]"] ;
446 -> 448 ;
449 [label="gini = 0.0\nsamples = 1\nvalue = [0, 0, 0, 0, 0, 0, 0, 1, 0, 0]"] ;
448 -> 449 ;
450 [label="gini = 0.0\nsamples = 1\nvalue = [0, 0, 0, 0, 0, 0, 0, 0, 0, 1]"] ;
448 -> 450 ;
451 [label="X[177] <= 0.0\ngini = 0.165\nsamples = 11\nvalue = [0, 1, 0, 0, 0, 10, 0, 0, 0, 0]"] ;
413 -> 451 ;
452 [label="gini = 0.0\nsamples = 10\nvalue = [0, 0, 0, 0, 0, 10, 0, 0, 0, 0]"] ;
451 -> 452 ;
453 [label="gini = 0.0\nsamples = 1\nvalue = [0, 1, 0, 0, 0, 0, 0, 0, 0, 0]"] ;
451 -> 453 ;
454 [label="X[269] <= 0.56\ngini = 0.069\nsamples = 56\nvalue = [0, 0, 0, 0, 54, 0, 0, 2, 0, 0]"] ;
412 -> 454 ;
455 [label="gini = 0.0\nsamples = 54\nvalue = [0, 0, 0, 0, 54, 0, 0, 0, 0, 0]"] ;
454 -> 455 ;
456 [label="gini = 0.0\nsamples = 2\nvalue = [0, 0, 0, 0, 0, 0, 0, 2, 0, 0]"] ;
454 -> 456 ;
457 [label="X[324] <= 0.024\ngini = 0.7\nsamples = 755\nvalue = [0, 31, 65, 58, 122, 6, 38, 54, 378, 3]"] ;
363 -> 457 ;
458 [label="X[128] <= 0.001\ngini = 0.581\nsamples = 597\nvalue = [0, 25, 60, 29, 34, 4, 35, 34, 375, 1]"] ;
457 -> 458 ;
459 [label="X[148] <= 0.158\ngini = 0.815\nsamples = 149\nvalue = [0, 23, 43, 9, 10, 4, 18, 7, 34, 1]"] ;
458 -> 459 ;
460 [label="X[133] <= 0.171\ngini = 0.743\nsamples = 104\nvalue = [0, 23, 43, 4, 2, 3, 18, 5, 5, 1]"] ;
459 -> 460 ;
461 [label="X[212] <= 0.644\ngini = 0.596\nsamples = 70\nvalue = [0, 0, 41, 3, 1, 2, 16, 2, 5, 0]"] ;
460 -> 461 ;
462 [label="X[68] <= 0.061\ngini = 0.349\nsamples = 45\nvalue = [0, 0, 36, 0, 1, 2, 1, 1, 4, 0]"] ;
461 -> 462 ;
463 [label="X[173] <= 0.147\ngini = 0.261\nsamples = 42\nvalue = [0, 0, 36, 0, 1, 2, 1, 1, 1, 0]"] ;
462 -> 463 ;
464 [label="X[207] <= -0.053\ngini = 0.101\nsamples = 38\nvalue = [0, 0, 36, 0, 1, 0, 0, 0, 1, 0]"] ;
463 -> 464 ;
465 [label="gini = 0.0\nsamples = 1\nvalue = [0, 0, 0, 0, 0, 0, 0, 0, 1, 0]"] ;
464 -> 465 ;
466 [label="X[182] <= 0.073\ngini = 0.053\nsamples = 37\nvalue = [0, 0, 36, 0, 1, 0, 0, 0, 0, 0]"] ;
464 -> 466 ;
467 [label="gini = 0.0\nsamples = 36\nvalue = [0, 0, 36, 0, 0, 0, 0, 0, 0, 0]"] ;
466 -> 467 ;
468 [label="gini = 0.0\nsamples = 1\nvalue = [0, 0, 0, 0, 1, 0, 0, 0, 0, 0]"] ;
466 -> 468 ;
469 [label="X[133] <= -0.008\ngini = 0.625\nsamples = 4\nvalue = [0, 0, 0, 0, 0, 2, 1, 1, 0, 0]"] ;
463 -> 469 ;
470 [label="gini = 0.0\nsamples = 2\nvalue = [0, 0, 0, 0, 0, 2, 0, 0, 0, 0]"] ;
469 -> 470 ;
471 [label="X[310] <= -0.004\ngini = 0.5\nsamples = 2\nvalue = [0, 0, 0, 0, 0, 0, 1, 1, 0, 0]"] ;
469 -> 471 ;
472 [label="gini = 0.0\nsamples = 1\nvalue = [0, 0, 0, 0, 0, 0, 1, 0, 0, 0]"] ;
471 -> 472 ;
473 [label="gini = 0.0\nsamples = 1\nvalue = [0, 0, 0, 0, 0, 0, 0, 1, 0, 0]"] ;
471 -> 473 ;
474 [label="gini = 0.0\nsamples = 3\nvalue = [0, 0, 0, 0, 0, 0, 0, 0, 3, 0]"] ;
462 -> 474 ;
475 [label="X[189] <= 0.246\ngini = 0.582\nsamples = 25\nvalue = [0, 0, 5, 3, 0, 0, 15, 1, 1, 0]"] ;
461 -> 475 ;
476 [label="gini = 0.0\nsamples = 14\nvalue = [0, 0, 0, 0, 0, 0, 14, 0, 0, 0]"] ;
475 -> 476 ;
477 [label="X[183] <= -0.005\ngini = 0.694\nsamples = 11\nvalue = [0, 0, 5, 3, 0, 0, 1, 1, 1, 0]"] ;
475 -> 477 ;
478 [label="gini = 0.0\nsamples = 5\nvalue = [0, 0, 5, 0, 0, 0, 0, 0, 0, 0]"] ;
477 -> 478 ;
479 [label="X[226] <= 0.333\ngini = 0.667\nsamples = 6\nvalue = [0, 0, 0, 3, 0, 0, 1, 1, 1, 0]"] ;
477 -> 479 ;
480 [label="gini = 0.0\nsamples = 3\nvalue = [0, 0, 0, 3, 0, 0, 0, 0, 0, 0]"] ;
479 -> 480 ;
481 [label="X[237] <= 0.0\ngini = 0.667\nsamples = 3\nvalue = [0, 0, 0, 0, 0, 0, 1, 1, 1, 0]"] ;
479 -> 481 ;
482 [label="gini = 0.0\nsamples = 1\nvalue = [0, 0, 0, 0, 0, 0, 0, 1, 0, 0]"] ;
481 -> 482 ;
483 [label="X[276] <= -0.002\ngini = 0.5\nsamples = 2\nvalue = [0, 0, 0, 0, 0, 0, 1, 0, 1, 0]"] ;
481 -> 483 ;
484 [label="gini = 0.0\nsamples = 1\nvalue = [0, 0, 0, 0, 0, 0, 1, 0, 0, 0]"] ;
483 -> 484 ;
485 [label="gini = 0.0\nsamples = 1\nvalue = [0, 0, 0, 0, 0, 0, 0, 0, 1, 0]"] ;
483 -> 485 ;
486 [label="X[197] <= 0.0\ngini = 0.524\nsamples = 34\nvalue = [0, 23, 2, 1, 1, 1, 2, 3, 0, 1]"] ;
460 -> 486 ;
487 [label="X[169] <= 0.655\ngini = 0.316\nsamples = 28\nvalue = [0, 23, 2, 1, 0, 1, 0, 0, 0, 1]"] ;
486 -> 487 ;
488 [label="gini = 0.0\nsamples = 22\nvalue = [0, 22, 0, 0, 0, 0, 0, 0, 0, 0]"] ;
487 -> 488 ;
489 [label="X[327] <= -0.003\ngini = 0.778\nsamples = 6\nvalue = [0, 1, 2, 1, 0, 1, 0, 0, 0, 1]"] ;
487 -> 489 ;
490 [label="gini = 0.0\nsamples = 2\nvalue = [0, 0, 2, 0, 0, 0, 0, 0, 0, 0]"] ;
489 -> 490 ;
491 [label="X[173] <= 0.642\ngini = 0.75\nsamples = 4\nvalue = [0, 1, 0, 1, 0, 1, 0, 0, 0, 1]"] ;
489 -> 491 ;
492 [label="gini = 0.0\nsamples = 1\nvalue = [0, 0, 0, 0, 0, 0, 0, 0, 0, 1]"] ;
491 -> 492 ;
493 [label="X[91] <= -0.026\ngini = 0.667\nsamples = 3\nvalue = [0, 1, 0, 1, 0, 1, 0, 0, 0, 0]"] ;
491 -> 493 ;
494 [label="gini = 0.0\nsamples = 1\nvalue = [0, 0, 0, 1, 0, 0, 0, 0, 0, 0]"] ;
493 -> 494 ;
495 [label="X[243] <= 0.201\ngini = 0.5\nsamples = 2\nvalue = [0, 1, 0, 0, 0, 1, 0, 0, 0, 0]"] ;
493 -> 495 ;
496 [label="gini = 0.0\nsamples = 1\nvalue = [0, 1, 0, 0, 0, 0, 0, 0, 0, 0]"] ;
495 -> 496 ;
497 [label="gini = 0.0\nsamples = 1\nvalue = [0, 0, 0, 0, 0, 1, 0, 0, 0, 0]"] ;
495 -> 497 ;
498 [label="X[213] <= 0.019\ngini = 0.611\nsamples = 6\nvalue = [0, 0, 0, 0, 1, 0, 2, 3, 0, 0]"] ;
486 -> 498 ;
499 [label="gini = 0.0\nsamples = 3\nvalue = [0, 0, 0, 0, 0, 0, 0, 3, 0, 0]"] ;
498 -> 499 ;
500 [label="X[277] <= 0.133\ngini = 0.444\nsamples = 3\nvalue = [0, 0, 0, 0, 1, 0, 2, 0, 0, 0]"] ;
498 -> 500 ;
501 [label="gini = 0.0\nsamples = 2\nvalue = [0, 0, 0, 0, 0, 0, 2, 0, 0, 0]"] ;
500 -> 501 ;
502 [label="gini = 0.0\nsamples = 1\nvalue = [0, 0, 0, 0, 1, 0, 0, 0, 0, 0]"] ;
500 -> 502 ;
503 [label="X[211] <= 0.042\ngini = 0.538\nsamples = 45\nvalue = [0, 0, 0, 5, 8, 1, 0, 2, 29, 0]"] ;
459 -> 503 ;
504 [label="X[323] <= 0.172\ngini = 0.198\nsamples = 9\nvalue = [0, 0, 0, 0, 8, 1, 0, 0, 0, 0]"] ;
503 -> 504 ;
505 [label="gini = 0.0\nsamples = 8\nvalue = [0, 0, 0, 0, 8, 0, 0, 0, 0, 0]"] ;
504 -> 505 ;
506 [label="gini = 0.0\nsamples = 1\nvalue = [0, 0, 0, 0, 0, 1, 0, 0, 0, 0]"] ;
504 -> 506 ;
507 [label="X[112] <= 0.144\ngini = 0.329\nsamples = 36\nvalue = [0, 0, 0, 5, 0, 0, 0, 2, 29, 0]"] ;
503 -> 507 ;
508 [label="X[224] <= 0.004\ngini = 0.123\nsamples = 31\nvalue = [0, 0, 0, 1, 0, 0, 0, 1, 29, 0]"] ;
507 -> 508 ;
509 [label="X[253] <= 0.267\ngini = 0.5\nsamples = 2\nvalue = [0, 0, 0, 1, 0, 0, 0, 1, 0, 0]"] ;
508 -> 509 ;
510 [label="gini = 0.0\nsamples = 1\nvalue = [0, 0, 0, 1, 0, 0, 0, 0, 0, 0]"] ;
509 -> 510 ;
511 [label="gini = 0.0\nsamples = 1\nvalue = [0, 0, 0, 0, 0, 0, 0, 1, 0, 0]"] ;
509 -> 511 ;
512 [label="gini = 0.0\nsamples = 29\nvalue = [0, 0, 0, 0, 0, 0, 0, 0, 29, 0]"] ;
508 -> 512 ;
513 [label="X[231] <= 0.399\ngini = 0.32\nsamples = 5\nvalue = [0, 0, 0, 4, 0, 0, 0, 1, 0, 0]"] ;
507 -> 513 ;
514 [label="gini = 0.0\nsamples = 1\nvalue = [0, 0, 0, 0, 0, 0, 0, 1, 0, 0]"] ;
513 -> 514 ;
515 [label="gini = 0.0\nsamples = 4\nvalue = [0, 0, 0, 4, 0, 0, 0, 0, 0, 0]"] ;
513 -> 515 ;
516 [label="X[249] <= 0.067\ngini = 0.409\nsamples = 448\nvalue = [0, 2, 17, 20, 24, 0, 17, 27, 341, 0]"] ;
458 -> 516 ;
517 [label="X[290] <= 0.036\ngini = 0.612\nsamples = 26\nvalue = [0, 0, 2, 1, 15, 0, 0, 4, 4, 0]"] ;
516 -> 517 ;
518 [label="X[286] <= 0.133\ngini = 0.29\nsamples = 18\nvalue = [0, 0, 2, 0, 15, 0, 0, 1, 0, 0]"] ;
517 -> 518 ;
519 [label="X[111] <= -0.001\ngini = 0.444\nsamples = 3\nvalue = [0, 0, 2, 0, 0, 0, 0, 1, 0, 0]"] ;
518 -> 519 ;
520 [label="gini = 0.0\nsamples = 1\nvalue = [0, 0, 0, 0, 0, 0, 0, 1, 0, 0]"] ;
519 -> 520 ;
521 [label="gini = 0.0\nsamples = 2\nvalue = [0, 0, 2, 0, 0, 0, 0, 0, 0, 0]"] ;
519 -> 521 ;
522 [label="gini = 0.0\nsamples = 15\nvalue = [0, 0, 0, 0, 15, 0, 0, 0, 0, 0]"] ;
518 -> 522 ;
523 [label="X[239] <= -0.002\ngini = 0.594\nsamples = 8\nvalue = [0, 0, 0, 1, 0, 0, 0, 3, 4, 0]"] ;
517 -> 523 ;
524 [label="gini = 0.0\nsamples = 4\nvalue = [0, 0, 0, 0, 0, 0, 0, 0, 4, 0]"] ;
523 -> 524 ;
525 [label="X[50] <= -0.005\ngini = 0.375\nsamples = 4\nvalue = [0, 0, 0, 1, 0, 0, 0, 3, 0, 0]"] ;
523 -> 525 ;
526 [label="gini = 0.0\nsamples = 1\nvalue = [0, 0, 0, 1, 0, 0, 0, 0, 0, 0]"] ;
525 -> 526 ;
527 [label="gini = 0.0\nsamples = 3\nvalue = [0, 0, 0, 0, 0, 0, 0, 3, 0, 0]"] ;
525 -> 527 ;
528 [label="X[312] <= 0.394\ngini = 0.354\nsamples = 422\nvalue = [0, 2, 15, 19, 9, 0, 17, 23, 337, 0]"] ;
516 -> 528 ;
529 [label="X[134] <= 0.242\ngini = 0.302\nsamples = 403\nvalue = [0, 1, 4, 17, 7, 0, 16, 23, 335, 0]"] ;
528 -> 529 ;
530 [label="X[183] <= 0.013\ngini = 0.262\nsamples = 389\nvalue = [0, 1, 3, 17, 6, 0, 15, 14, 333, 0]"] ;
529 -> 530 ;
531 [label="X[283] <= 0.002\ngini = 0.217\nsamples = 375\nvalue = [0, 1, 2, 11, 4, 0, 15, 11, 331, 0]"] ;
530 -> 531 ;
532 [label="X[346] <= 0.09\ngini = 0.189\nsamples = 367\nvalue = [0, 1, 2, 6, 3, 0, 14, 11, 330, 0]"] ;
531 -> 532 ;
533 [label="X[190] <= 0.005\ngini = 0.167\nsamples = 362\nvalue = [0, 1, 2, 5, 3, 0, 14, 7, 330, 0]"] ;
532 -> 533 ;
534 [label="X[172] <= 0.411\ngini = 0.5\nsamples = 38\nvalue = [0, 1, 0, 0, 1, 0, 12, 0, 24, 0]"] ;
533 -> 534 ;
535 [label="X[259] <= -0.0\ngini = 0.464\nsamples = 17\nvalue = [0, 1, 0, 0, 1, 0, 12, 0, 3, 0]"] ;
534 -> 535 ;
536 [label="X[131] <= 0.364\ngini = 0.375\nsamples = 4\nvalue = [0, 1, 0, 0, 0, 0, 0, 0, 3, 0]"] ;
535 -> 536 ;
537 [label="gini = 0.0\nsamples = 3\nvalue = [0, 0, 0, 0, 0, 0, 0, 0, 3, 0]"] ;
536 -> 537 ;
538 [label="gini = 0.0\nsamples = 1\nvalue = [0, 1, 0, 0, 0, 0, 0, 0, 0, 0]"] ;
536 -> 538 ;
539 [label="X[228] <= 0.952\ngini = 0.142\nsamples = 13\nvalue = [0, 0, 0, 0, 1, 0, 12, 0, 0, 0]"] ;
535 -> 539 ;
540 [label="gini = 0.0\nsamples = 12\nvalue = [0, 0, 0, 0, 0, 0, 12, 0, 0, 0]"] ;
539 -> 540 ;
541 [label="gini = 0.0\nsamples = 1\nvalue = [0, 0, 0, 0, 1, 0, 0, 0, 0, 0]"] ;
539 -> 541 ;
542 [label="gini = 0.0\nsamples = 21\nvalue = [0, 0, 0, 0, 0, 0, 0, 0, 21, 0]"] ;
534 -> 542 ;
543 [label="X[350] <= 0.0\ngini = 0.107\nsamples = 324\nvalue = [0, 0, 2, 5, 2, 0, 2, 7, 306, 0]"] ;
533 -> 543 ;
544 [label="X[130] <= -0.023\ngini = 0.075\nsamples = 314\nvalue = [0, 0, 1, 4, 2, 0, 1, 4, 302, 0]"] ;
543 -> 544 ;
545 [label="gini = 0.0\nsamples = 2\nvalue = [0, 0, 0, 0, 0, 0, 0, 2, 0, 0]"] ;
544 -> 545 ;
546 [label="X[223] <= 0.0\ngini = 0.063\nsamples = 312\nvalue = [0, 0, 1, 4, 2, 0, 1, 2, 302, 0]"] ;
544 -> 546 ;
547 [label="X[124] <= -0.034\ngini = 0.051\nsamples = 309\nvalue = [0, 0, 1, 2, 2, 0, 1, 2, 301, 0]"] ;
546 -> 547 ;
548 [label="gini = 0.0\nsamples = 1\nvalue = [0, 0, 0, 0, 0, 0, 1, 0, 0, 0]"] ;
547 -> 548 ;
549 [label="X[195] <= -0.044\ngini = 0.045\nsamples = 308\nvalue = [0, 0, 1, 2, 2, 0, 0, 2, 301, 0]"] ;
547 -> 549 ;
550 [label="gini = 0.0\nsamples = 1\nvalue = [0, 0, 1, 0, 0, 0, 0, 0, 0, 0]"] ;
549 -> 550 ;
551 [label="X[211] <= 1.038\ngini = 0.039\nsamples = 307\nvalue = [0, 0, 0, 2, 2, 0, 0, 2, 301, 0]"] ;
549 -> 551 ;
552 [label="X[89] <= 1.057\ngini = 0.032\nsamples = 306\nvalue = [0, 0, 0, 1, 2, 0, 0, 2, 301, 0]"] ;
551 -> 552 ;
553 [label="X[135] <= -0.038\ngini = 0.026\nsamples = 305\nvalue = [0, 0, 0, 0, 2, 0, 0, 2, 301, 0]"] ;
552 -> 553 ;
554 [label="gini = 0.0\nsamples = 1\nvalue = [0, 0, 0, 0, 1, 0, 0, 0, 0, 0]"] ;
553 -> 554 ;
555 [label="X[293] <= -0.047\ngini = 0.02\nsamples = 304\nvalue = [0, 0, 0, 0, 1, 0, 0, 2, 301, 0]"] ;
553 -> 555 ;
556 [label="gini = 0.0\nsamples = 1\nvalue = [0, 0, 0, 0, 1, 0, 0, 0, 0, 0]"] ;
555 -> 556 ;
557 [label="X[277] <= -0.022\ngini = 0.013\nsamples = 303\nvalue = [0, 0, 0, 0, 0, 0, 0, 2, 301, 0]"] ;
555 -> 557 ;
558 [label="X[195] <= 0.705\ngini = 0.48\nsamples = 5\nvalue = [0, 0, 0, 0, 0, 0, 0, 2, 3, 0]"] ;
557 -> 558 ;
559 [label="gini = 0.0\nsamples = 3\nvalue = [0, 0, 0, 0, 0, 0, 0, 0, 3, 0]"] ;
558 -> 559 ;
560 [label="gini = 0.0\nsamples = 2\nvalue = [0, 0, 0, 0, 0, 0, 0, 2, 0, 0]"] ;
558 -> 560 ;
561 [label="gini = 0.0\nsamples = 298\nvalue = [0, 0, 0, 0, 0, 0, 0, 0, 298, 0]"] ;
557 -> 561 ;
562 [label="gini = 0.0\nsamples = 1\nvalue = [0, 0, 0, 1, 0, 0, 0, 0, 0, 0]"] ;
552 -> 562 ;
563 [label="gini = 0.0\nsamples = 1\nvalue = [0, 0, 0, 1, 0, 0, 0, 0, 0, 0]"] ;
551 -> 563 ;
564 [label="X[291] <= 0.53\ngini = 0.444\nsamples = 3\nvalue = [0, 0, 0, 2, 0, 0, 0, 0, 1, 0]"] ;
546 -> 564 ;
565 [label="gini = 0.0\nsamples = 2\nvalue = [0, 0, 0, 2, 0, 0, 0, 0, 0, 0]"] ;
564 -> 565 ;
566 [label="gini = 0.0\nsamples = 1\nvalue = [0, 0, 0, 0, 0, 0, 0, 0, 1, 0]"] ;
564 -> 566 ;
567 [label="X[203] <= -0.009\ngini = 0.72\nsamples = 10\nvalue = [0, 0, 1, 1, 0, 0, 1, 3, 4, 0]"] ;
543 -> 567 ;
568 [label="X[329] <= 0.014\ngini = 0.667\nsamples = 6\nvalue = [0, 0, 1, 1, 0, 0, 1, 3, 0, 0]"] ;
567 -> 568 ;
569 [label="gini = 0.0\nsamples = 3\nvalue = [0, 0, 0, 0, 0, 0, 0, 3, 0, 0]"] ;
568 -> 569 ;
570 [label="X[131] <= 0.367\ngini = 0.667\nsamples = 3\nvalue = [0, 0, 1, 1, 0, 0, 1, 0, 0, 0]"] ;
568 -> 570 ;
571 [label="gini = 0.0\nsamples = 1\nvalue = [0, 0, 0, 0, 0, 0, 1, 0, 0, 0]"] ;
570 -> 571 ;
572 [label="X[191] <= 0.81\ngini = 0.5\nsamples = 2\nvalue = [0, 0, 1, 1, 0, 0, 0, 0, 0, 0]"] ;
570 -> 572 ;
573 [label="gini = 0.0\nsamples = 1\nvalue = [0, 0, 1, 0, 0, 0, 0, 0, 0, 0]"] ;
572 -> 573 ;
574 [label="gini = 0.0\nsamples = 1\nvalue = [0, 0, 0, 1, 0, 0, 0, 0, 0, 0]"] ;
572 -> 574 ;
575 [label="gini = 0.0\nsamples = 4\nvalue = [0, 0, 0, 0, 0, 0, 0, 0, 4, 0]"] ;
567 -> 575 ;
576 [label="X[155] <= 0.594\ngini = 0.32\nsamples = 5\nvalue = [0, 0, 0, 1, 0, 0, 0, 4, 0, 0]"] ;
532 -> 576 ;
577 [label="gini = 0.0\nsamples = 4\nvalue = [0, 0, 0, 0, 0, 0, 0, 4, 0, 0]"] ;
576 -> 577 ;
578 [label="gini = 0.0\nsamples = 1\nvalue = [0, 0, 0, 1, 0, 0, 0, 0, 0, 0]"] ;
576 -> 578 ;
579 [label="X[109] <= -0.012\ngini = 0.562\nsamples = 8\nvalue = [0, 0, 0, 5, 1, 0, 1, 0, 1, 0]"] ;
531 -> 579 ;
580 [label="X[27] <= 0.039\ngini = 0.667\nsamples = 3\nvalue = [0, 0, 0, 0, 1, 0, 1, 0, 1, 0]"] ;
579 -> 580 ;
581 [label="X[123] <= 0.0\ngini = 0.5\nsamples = 2\nvalue = [0, 0, 0, 0, 1, 0, 0, 0, 1, 0]"] ;
580 -> 581 ;
582 [label="gini = 0.0\nsamples = 1\nvalue = [0, 0, 0, 0, 0, 0, 0, 0, 1, 0]"] ;
581 -> 582 ;
583 [label="gini = 0.0\nsamples = 1\nvalue = [0, 0, 0, 0, 1, 0, 0, 0, 0, 0]"] ;
581 -> 583 ;
584 [label="gini = 0.0\nsamples = 1\nvalue = [0, 0, 0, 0, 0, 0, 1, 0, 0, 0]"] ;
580 -> 584 ;
585 [label="gini = 0.0\nsamples = 5\nvalue = [0, 0, 0, 5, 0, 0, 0, 0, 0, 0]"] ;
579 -> 585 ;
586 [label="X[145] <= 0.485\ngini = 0.724\nsamples = 14\nvalue = [0, 0, 1, 6, 2, 0, 0, 3, 2, 0]"] ;
530 -> 586 ;
587 [label="gini = 0.0\nsamples = 6\nvalue = [0, 0, 0, 6, 0, 0, 0, 0, 0, 0]"] ;
586 -> 587 ;
588 [label="X[194] <= 0.048\ngini = 0.719\nsamples = 8\nvalue = [0, 0, 1, 0, 2, 0, 0, 3, 2, 0]"] ;
586 -> 588 ;
589 [label="X[232] <= 0.43\ngini = 0.64\nsamples = 5\nvalue = [0, 0, 1, 0, 2, 0, 0, 0, 2, 0]"] ;
588 -> 589 ;
590 [label="X[228] <= 0.191\ngini = 0.444\nsamples = 3\nvalue = [0, 0, 1, 0, 2, 0, 0, 0, 0, 0]"] ;
589 -> 590 ;
591 [label="gini = 0.0\nsamples = 2\nvalue = [0, 0, 0, 0, 2, 0, 0, 0, 0, 0]"] ;
590 -> 591 ;
592 [label="gini = 0.0\nsamples = 1\nvalue = [0, 0, 1, 0, 0, 0, 0, 0, 0, 0]"] ;
590 -> 592 ;
593 [label="gini = 0.0\nsamples = 2\nvalue = [0, 0, 0, 0, 0, 0, 0, 0, 2, 0]"] ;
589 -> 593 ;
594 [label="gini = 0.0\nsamples = 3\nvalue = [0, 0, 0, 0, 0, 0, 0, 3, 0, 0]"] ;
588 -> 594 ;
595 [label="X[171] <= 0.949\ngini = 0.551\nsamples = 14\nvalue = [0, 0, 1, 0, 1, 0, 1, 9, 2, 0]"] ;
529 -> 595 ;
596 [label="X[283] <= -0.019\ngini = 0.72\nsamples = 5\nvalue = [0, 0, 1, 0, 1, 0, 1, 0, 2, 0]"] ;
595 -> 596 ;
597 [label="gini = 0.0\nsamples = 2\nvalue = [0, 0, 0, 0, 0, 0, 0, 0, 2, 0]"] ;
596 -> 597 ;
598 [label="X[365] <= -0.0\ngini = 0.667\nsamples = 3\nvalue = [0, 0, 1, 0, 1, 0, 1, 0, 0, 0]"] ;
596 -> 598 ;
599 [label="gini = 0.0\nsamples = 1\nvalue = [0, 0, 0, 0, 0, 0, 1, 0, 0, 0]"] ;
598 -> 599 ;
600 [label="X[256] <= 0.183\ngini = 0.5\nsamples = 2\nvalue = [0, 0, 1, 0, 1, 0, 0, 0, 0, 0]"] ;
598 -> 600 ;
601 [label="gini = 0.0\nsamples = 1\nvalue = [0, 0, 0, 0, 1, 0, 0, 0, 0, 0]"] ;
600 -> 601 ;
602 [label="gini = 0.0\nsamples = 1\nvalue = [0, 0, 1, 0, 0, 0, 0, 0, 0, 0]"] ;
600 -> 602 ;
603 [label="gini = 0.0\nsamples = 9\nvalue = [0, 0, 0, 0, 0, 0, 0, 9, 0, 0]"] ;
595 -> 603 ;
604 [label="X[208] <= 0.754\ngini = 0.626\nsamples = 19\nvalue = [0, 1, 11, 2, 2, 0, 1, 0, 2, 0]"] ;
528 -> 604 ;
605 [label="X[29] <= -0.0\ngini = 0.735\nsamples = 7\nvalue = [0, 1, 0, 2, 2, 0, 0, 0, 2, 0]"] ;
604 -> 605 ;
606 [label="gini = 0.0\nsamples = 2\nvalue = [0, 0, 0, 0, 0, 0, 0, 0, 2, 0]"] ;
605 -> 606 ;
607 [label="X[317] <= 0.133\ngini = 0.64\nsamples = 5\nvalue = [0, 1, 0, 2, 2, 0, 0, 0, 0, 0]"] ;
605 -> 607 ;
608 [label="X[148] <= 0.62\ngini = 0.444\nsamples = 3\nvalue = [0, 1, 0, 2, 0, 0, 0, 0, 0, 0]"] ;
607 -> 608 ;
609 [label="gini = 0.0\nsamples = 1\nvalue = [0, 1, 0, 0, 0, 0, 0, 0, 0, 0]"] ;
608 -> 609 ;
610 [label="gini = 0.0\nsamples = 2\nvalue = [0, 0, 0, 2, 0, 0, 0, 0, 0, 0]"] ;
608 -> 610 ;
611 [label="gini = 0.0\nsamples = 2\nvalue = [0, 0, 0, 0, 2, 0, 0, 0, 0, 0]"] ;
607 -> 611 ;
612 [label="X[286] <= -0.028\ngini = 0.153\nsamples = 12\nvalue = [0, 0, 11, 0, 0, 0, 1, 0, 0, 0]"] ;
604 -> 612 ;
613 [label="gini = 0.0\nsamples = 1\nvalue = [0, 0, 0, 0, 0, 0, 1, 0, 0, 0]"] ;
612 -> 613 ;
614 [label="gini = 0.0\nsamples = 11\nvalue = [0, 0, 11, 0, 0, 0, 0, 0, 0, 0]"] ;
612 -> 614 ;
615 [label="X[268] <= 0.139\ngini = 0.637\nsamples = 158\nvalue = [0, 6, 5, 29, 88, 2, 3, 20, 3, 2]"] ;
457 -> 615 ;
616 [label="X[132] <= 0.88\ngini = 0.066\nsamples = 89\nvalue = [0, 0, 0, 0, 86, 2, 0, 1, 0, 0]"] ;
615 -> 616 ;
617 [label="X[345] <= -0.023\ngini = 0.023\nsamples = 87\nvalue = [0, 0, 0, 0, 86, 0, 0, 1, 0, 0]"] ;
616 -> 617 ;
618 [label="gini = 0.0\nsamples = 1\nvalue = [0, 0, 0, 0, 0, 0, 0, 1, 0, 0]"] ;
617 -> 618 ;
619 [label="gini = 0.0\nsamples = 86\nvalue = [0, 0, 0, 0, 86, 0, 0, 0, 0, 0]"] ;
617 -> 619 ;
620 [label="gini = 0.0\nsamples = 2\nvalue = [0, 0, 0, 0, 0, 2, 0, 0, 0, 0]"] ;
616 -> 620 ;
621 [label="X[264] <= 0.101\ngini = 0.729\nsamples = 69\nvalue = [0, 6, 5, 29, 2, 0, 3, 19, 3, 2]"] ;
615 -> 621 ;
622 [label="X[226] <= 0.418\ngini = 0.219\nsamples = 33\nvalue = [0, 0, 0, 29, 0, 0, 3, 1, 0, 0]"] ;
621 -> 622 ;
623 [label="gini = 0.0\nsamples = 29\nvalue = [0, 0, 0, 29, 0, 0, 0, 0, 0, 0]"] ;
622 -> 623 ;
624 [label="X[217] <= 0.47\ngini = 0.375\nsamples = 4\nvalue = [0, 0, 0, 0, 0, 0, 3, 1, 0, 0]"] ;
622 -> 624 ;
625 [label="gini = 0.0\nsamples = 3\nvalue = [0, 0, 0, 0, 0, 0, 3, 0, 0, 0]"] ;
624 -> 625 ;
626 [label="gini = 0.0\nsamples = 1\nvalue = [0, 0, 0, 0, 0, 0, 0, 1, 0, 0]"] ;
624 -> 626 ;
627 [label="X[252] <= 0.422\ngini = 0.69\nsamples = 36\nvalue = [0, 6, 5, 0, 2, 0, 0, 18, 3, 2]"] ;
621 -> 627 ;
628 [label="X[191] <= 0.384\ngini = 0.374\nsamples = 23\nvalue = [0, 1, 0, 0, 1, 0, 0, 18, 2, 1]"] ;
627 -> 628 ;
629 [label="X[205] <= 0.767\ngini = 0.625\nsamples = 4\nvalue = [0, 0, 0, 0, 1, 0, 0, 0, 2, 1]"] ;
628 -> 629 ;
630 [label="X[269] <= 0.964\ngini = 0.5\nsamples = 2\nvalue = [0, 0, 0, 0, 1, 0, 0, 0, 0, 1]"] ;
629 -> 630 ;
631 [label="gini = 0.0\nsamples = 1\nvalue = [0, 0, 0, 0, 0, 0, 0, 0, 0, 1]"] ;
630 -> 631 ;
632 [label="gini = 0.0\nsamples = 1\nvalue = [0, 0, 0, 0, 1, 0, 0, 0, 0, 0]"] ;
630 -> 632 ;
633 [label="gini = 0.0\nsamples = 2\nvalue = [0, 0, 0, 0, 0, 0, 0, 0, 2, 0]"] ;
629 -> 633 ;
634 [label="X[170] <= 0.14\ngini = 0.1\nsamples = 19\nvalue = [0, 1, 0, 0, 0, 0, 0, 18, 0, 0]"] ;
628 -> 634 ;
635 [label="gini = 0.0\nsamples = 1\nvalue = [0, 1, 0, 0, 0, 0, 0, 0, 0, 0]"] ;
634 -> 635 ;
636 [label="gini = 0.0\nsamples = 18\nvalue = [0, 0, 0, 0, 0, 0, 0, 18, 0, 0]"] ;
634 -> 636 ;
637 [label="X[58] <= 0.0\ngini = 0.686\nsamples = 13\nvalue = [0, 5, 5, 0, 1, 0, 0, 0, 1, 1]"] ;
627 -> 637 ;
638 [label="X[234] <= 0.072\ngini = 0.562\nsamples = 8\nvalue = [0, 5, 0, 0, 1, 0, 0, 0, 1, 1]"] ;
637 -> 638 ;
639 [label="gini = 0.0\nsamples = 5\nvalue = [0, 5, 0, 0, 0, 0, 0, 0, 0, 0]"] ;
638 -> 639 ;
640 [label="X[153] <= 0.258\ngini = 0.667\nsamples = 3\nvalue = [0, 0, 0, 0, 1, 0, 0, 0, 1, 1]"] ;
638 -> 640 ;
641 [label="gini = 0.0\nsamples = 1\nvalue = [0, 0, 0, 0, 1, 0, 0, 0, 0, 0]"] ;
640 -> 641 ;
642 [label="X[291] <= 0.583\ngini = 0.5\nsamples = 2\nvalue = [0, 0, 0, 0, 0, 0, 0, 0, 1, 1]"] ;
640 -> 642 ;
643 [label="gini = 0.0\nsamples = 1\nvalue = [0, 0, 0, 0, 0, 0, 0, 0, 1, 0]"] ;
642 -> 643 ;
644 [label="gini = 0.0\nsamples = 1\nvalue = [0, 0, 0, 0, 0, 0, 0, 0, 0, 1]"] ;
642 -> 644 ;
645 [label="gini = 0.0\nsamples = 5\nvalue = [0, 0, 5, 0, 0, 0, 0, 0, 0, 0]"] ;
637 -> 645 ;
646 [label="X[198] <= -0.0\ngini = 0.84\nsamples = 1990\nvalue = [269, 338, 343, 60, 157, 371, 7, 403, 20, 22]"] ;
198 -> 646 ;
647 [label="X[172] <= 0.019\ngini = 0.775\nsamples = 1170\nvalue = [208, 65, 311, 21, 136, 13, 5, 379, 12, 20]"] ;
646 -> 647 ;
648 [label="X[247] <= 0.157\ngini = 0.631\nsamples = 492\nvalue = [59, 7, 271, 7, 108, 2, 1, 26, 4, 7]"] ;
647 -> 648 ;
649 [label="X[192] <= 0.022\ngini = 0.673\nsamples = 217\nvalue = [52, 2, 39, 5, 105, 2, 0, 10, 1, 1]"] ;
648 -> 649 ;
650 [label="X[227] <= 0.282\ngini = 0.496\nsamples = 157\nvalue = [0, 2, 39, 1, 104, 1, 0, 9, 1, 0]"] ;
649 -> 650 ;
651 [label="X[287] <= 0.028\ngini = 0.317\nsamples = 122\nvalue = [0, 2, 10, 1, 100, 0, 0, 8, 1, 0]"] ;
650 -> 651 ;
652 [label="X[153] <= 0.556\ngini = 0.057\nsamples = 102\nvalue = [0, 0, 2, 0, 99, 0, 0, 1, 0, 0]"] ;
651 -> 652 ;
653 [label="X[206] <= 0.994\ngini = 0.02\nsamples = 100\nvalue = [0, 0, 1, 0, 99, 0, 0, 0, 0, 0]"] ;
652 -> 653 ;
654 [label="gini = 0.0\nsamples = 99\nvalue = [0, 0, 0, 0, 99, 0, 0, 0, 0, 0]"] ;
653 -> 654 ;
655 [label="gini = 0.0\nsamples = 1\nvalue = [0, 0, 1, 0, 0, 0, 0, 0, 0, 0]"] ;
653 -> 655 ;
656 [label="X[134] <= 0.623\ngini = 0.5\nsamples = 2\nvalue = [0, 0, 1, 0, 0, 0, 0, 1, 0, 0]"] ;
652 -> 656 ;
657 [label="gini = 0.0\nsamples = 1\nvalue = [0, 0, 0, 0, 0, 0, 0, 1, 0, 0]"] ;
656 -> 657 ;
658 [label="gini = 0.0\nsamples = 1\nvalue = [0, 0, 1, 0, 0, 0, 0, 0, 0, 0]"] ;
656 -> 658 ;
659 [label="X[227] <= -0.031\ngini = 0.7\nsamples = 20\nvalue = [0, 2, 8, 1, 1, 0, 0, 7, 1, 0]"] ;
651 -> 659 ;
660 [label="gini = 0.0\nsamples = 7\nvalue = [0, 0, 7, 0, 0, 0, 0, 0, 0, 0]"] ;
659 -> 660 ;
661 [label="X[304] <= -0.005\ngini = 0.663\nsamples = 13\nvalue = [0, 2, 1, 1, 1, 0, 0, 7, 1, 0]"] ;
659 -> 661 ;
662 [label="X[307] <= 0.016\ngini = 0.816\nsamples = 7\nvalue = [0, 2, 1, 1, 1, 0, 0, 1, 1, 0]"] ;
661 -> 662 ;
663 [label="gini = 0.0\nsamples = 2\nvalue = [0, 2, 0, 0, 0, 0, 0, 0, 0, 0]"] ;
662 -> 663 ;
664 [label="X[317] <= 0.0\ngini = 0.8\nsamples = 5\nvalue = [0, 0, 1, 1, 1, 0, 0, 1, 1, 0]"] ;
662 -> 664 ;
665 [label="X[233] <= 0.599\ngini = 0.5\nsamples = 2\nvalue = [0, 0, 0, 1, 1, 0, 0, 0, 0, 0]"] ;
664 -> 665 ;
666 [label="gini = 0.0\nsamples = 1\nvalue = [0, 0, 0, 0, 1, 0, 0, 0, 0, 0]"] ;
665 -> 666 ;
667 [label="gini = 0.0\nsamples = 1\nvalue = [0, 0, 0, 1, 0, 0, 0, 0, 0, 0]"] ;
665 -> 667 ;
668 [label="X[282] <= 0.0\ngini = 0.667\nsamples = 3\nvalue = [0, 0, 1, 0, 0, 0, 0, 1, 1, 0]"] ;
664 -> 668 ;
669 [label="X[254] <= 0.219\ngini = 0.5\nsamples = 2\nvalue = [0, 0, 1, 0, 0, 0, 0, 1, 0, 0]"] ;
668 -> 669 ;
670 [label="gini = 0.0\nsamples = 1\nvalue = [0, 0, 1, 0, 0, 0, 0, 0, 0, 0]"] ;
669 -> 670 ;
671 [label="gini = 0.0\nsamples = 1\nvalue = [0, 0, 0, 0, 0, 0, 0, 1, 0, 0]"] ;
669 -> 671 ;
672 [label="gini = 0.0\nsamples = 1\nvalue = [0, 0, 0, 0, 0, 0, 0, 0, 1, 0]"] ;
668 -> 672 ;
673 [label="gini = 0.0\nsamples = 6\nvalue = [0, 0, 0, 0, 0, 0, 0, 6, 0, 0]"] ;
661 -> 673 ;
674 [label="X[284] <= 0.633\ngini = 0.299\nsamples = 35\nvalue = [0, 0, 29, 0, 4, 1, 0, 1, 0, 0]"] ;
650 -> 674 ;
675 [label="X[147] <= 0.816\ngini = 0.064\nsamples = 30\nvalue = [0, 0, 29, 0, 1, 0, 0, 0, 0, 0]"] ;
674 -> 675 ;
676 [label="gini = 0.0\nsamples = 29\nvalue = [0, 0, 29, 0, 0, 0, 0, 0, 0, 0]"] ;
675 -> 676 ;
677 [label="gini = 0.0\nsamples = 1\nvalue = [0, 0, 0, 0, 1, 0, 0, 0, 0, 0]"] ;
675 -> 677 ;
678 [label="X[54] <= -0.012\ngini = 0.56\nsamples = 5\nvalue = [0, 0, 0, 0, 3, 1, 0, 1, 0, 0]"] ;
674 -> 678 ;
679 [label="gini = 0.0\nsamples = 3\nvalue = [0, 0, 0, 0, 3, 0, 0, 0, 0, 0]"] ;
678 -> 679 ;
680 [label="X[131] <= 0.915\ngini = 0.5\nsamples = 2\nvalue = [0, 0, 0, 0, 0, 1, 0, 1, 0, 0]"] ;
678 -> 680 ;
681 [label="gini = 0.0\nsamples = 1\nvalue = [0, 0, 0, 0, 0, 0, 0, 1, 0, 0]"] ;
680 -> 681 ;
682 [label="gini = 0.0\nsamples = 1\nvalue = [0, 0, 0, 0, 0, 1, 0, 0, 0, 0]"] ;
680 -> 682 ;
683 [label="X[148] <= 0.049\ngini = 0.243\nsamples = 60\nvalue = [52, 0, 0, 4, 1, 1, 0, 1, 0, 1]"] ;
649 -> 683 ;
684 [label="X[263] <= 0.205\ngini = 0.037\nsamples = 53\nvalue = [52, 0, 0, 0, 1, 0, 0, 0, 0, 0]"] ;
683 -> 684 ;
685 [label="gini = 0.0\nsamples = 52\nvalue = [52, 0, 0, 0, 0, 0, 0, 0, 0, 0]"] ;
684 -> 685 ;
686 [label="gini = 0.0\nsamples = 1\nvalue = [0, 0, 0, 0, 1, 0, 0, 0, 0, 0]"] ;
684 -> 686 ;
687 [label="X[146] <= 0.482\ngini = 0.612\nsamples = 7\nvalue = [0, 0, 0, 4, 0, 1, 0, 1, 0, 1]"] ;
683 -> 687 ;
688 [label="gini = 0.0\nsamples = 4\nvalue = [0, 0, 0, 4, 0, 0, 0, 0, 0, 0]"] ;
687 -> 688 ;
689 [label="X[327] <= 0.033\ngini = 0.667\nsamples = 3\nvalue = [0, 0, 0, 0, 0, 1, 0, 1, 0, 1]"] ;
687 -> 689 ;
690 [label="gini = 0.0\nsamples = 1\nvalue = [0, 0, 0, 0, 0, 0, 0, 1, 0, 0]"] ;
689 -> 690 ;
691 [label="X[344] <= 0.052\ngini = 0.5\nsamples = 2\nvalue = [0, 0, 0, 0, 0, 1, 0, 0, 0, 1]"] ;
689 -> 691 ;
692 [label="gini = 0.0\nsamples = 1\nvalue = [0, 0, 0, 0, 0, 0, 0, 0, 0, 1]"] ;
691 -> 692 ;
693 [label="gini = 0.0\nsamples = 1\nvalue = [0, 0, 0, 0, 0, 1, 0, 0, 0, 0]"] ;
691 -> 693 ;
694 [label="X[147] <= 0.616\ngini = 0.283\nsamples = 275\nvalue = [7, 5, 232, 2, 3, 0, 1, 16, 3, 6]"] ;
648 -> 694 ;
695 [label="X[192] <= 0.364\ngini = 0.166\nsamples = 251\nvalue = [6, 4, 229, 1, 1, 0, 1, 8, 0, 1]"] ;
694 -> 695 ;
696 [label="X[132] <= 0.865\ngini = 0.089\nsamples = 239\nvalue = [1, 1, 228, 0, 1, 0, 0, 7, 0, 1]"] ;
695 -> 696 ;
697 [label="X[127] <= 0.713\ngini = 0.043\nsamples = 232\nvalue = [1, 1, 227, 0, 1, 0, 0, 2, 0, 0]"] ;
696 -> 697 ;
698 [label="X[138] <= 0.0\ngini = 0.017\nsamples = 228\nvalue = [1, 1, 226, 0, 0, 0, 0, 0, 0, 0]"] ;
697 -> 698 ;
699 [label="X[176] <= 0.13\ngini = 0.009\nsamples = 227\nvalue = [1, 0, 226, 0, 0, 0, 0, 0, 0, 0]"] ;
698 -> 699 ;
700 [label="gini = 0.0\nsamples = 1\nvalue = [1, 0, 0, 0, 0, 0, 0, 0, 0, 0]"] ;
699 -> 700 ;
701 [label="gini = 0.0\nsamples = 226\nvalue = [0, 0, 226, 0, 0, 0, 0, 0, 0, 0]"] ;
699 -> 701 ;
702 [label="gini = 0.0\nsamples = 1\nvalue = [0, 1, 0, 0, 0, 0, 0, 0, 0, 0]"] ;
698 -> 702 ;
703 [label="X[66] <= -0.0\ngini = 0.625\nsamples = 4\nvalue = [0, 0, 1, 0, 1, 0, 0, 2, 0, 0]"] ;
697 -> 703 ;
704 [label="X[349] <= 0.005\ngini = 0.5\nsamples = 2\nvalue = [0, 0, 1, 0, 1, 0, 0, 0, 0, 0]"] ;
703 -> 704 ;
705 [label="gini = 0.0\nsamples = 1\nvalue = [0, 0, 1, 0, 0, 0, 0, 0, 0, 0]"] ;
704 -> 705 ;
706 [label="gini = 0.0\nsamples = 1\nvalue = [0, 0, 0, 0, 1, 0, 0, 0, 0, 0]"] ;
704 -> 706 ;
707 [label="gini = 0.0\nsamples = 2\nvalue = [0, 0, 0, 0, 0, 0, 0, 2, 0, 0]"] ;
703 -> 707 ;
708 [label="X[174] <= 0.218\ngini = 0.449\nsamples = 7\nvalue = [0, 0, 1, 0, 0, 0, 0, 5, 0, 1]"] ;
696 -> 708 ;
709 [label="gini = 0.0\nsamples = 5\nvalue = [0, 0, 0, 0, 0, 0, 0, 5, 0, 0]"] ;
708 -> 709 ;
710 [label="X[306] <= 0.065\ngini = 0.5\nsamples = 2\nvalue = [0, 0, 1, 0, 0, 0, 0, 0, 0, 1]"] ;
708 -> 710 ;
711 [label="gini = 0.0\nsamples = 1\nvalue = [0, 0, 1, 0, 0, 0, 0, 0, 0, 0]"] ;
710 -> 711 ;
712 [label="gini = 0.0\nsamples = 1\nvalue = [0, 0, 0, 0, 0, 0, 0, 0, 0, 1]"] ;
710 -> 712 ;
713 [label="X[228] <= 0.865\ngini = 0.736\nsamples = 12\nvalue = [5, 3, 1, 1, 0, 0, 1, 1, 0, 0]"] ;
695 -> 713 ;
714 [label="X[232] <= 0.381\ngini = 0.735\nsamples = 7\nvalue = [0, 3, 1, 1, 0, 0, 1, 1, 0, 0]"] ;
713 -> 714 ;
715 [label="gini = 0.0\nsamples = 3\nvalue = [0, 3, 0, 0, 0, 0, 0, 0, 0, 0]"] ;
714 -> 715 ;
716 [label="X[202] <= -0.045\ngini = 0.75\nsamples = 4\nvalue = [0, 0, 1, 1, 0, 0, 1, 1, 0, 0]"] ;
714 -> 716 ;
717 [label="gini = 0.0\nsamples = 1\nvalue = [0, 0, 0, 0, 0, 0, 0, 1, 0, 0]"] ;
716 -> 717 ;
718 [label="X[106] <= 0.0\ngini = 0.667\nsamples = 3\nvalue = [0, 0, 1, 1, 0, 0, 1, 0, 0, 0]"] ;
716 -> 718 ;
719 [label="X[191] <= 0.606\ngini = 0.5\nsamples = 2\nvalue = [0, 0, 1, 0, 0, 0, 1, 0, 0, 0]"] ;
718 -> 719 ;
720 [label="gini = 0.0\nsamples = 1\nvalue = [0, 0, 0, 0, 0, 0, 1, 0, 0, 0]"] ;
719 -> 720 ;
721 [label="gini = 0.0\nsamples = 1\nvalue = [0, 0, 1, 0, 0, 0, 0, 0, 0, 0]"] ;
719 -> 721 ;
722 [label="gini = 0.0\nsamples = 1\nvalue = [0, 0, 0, 1, 0, 0, 0, 0, 0, 0]"] ;
718 -> 722 ;
723 [label="gini = 0.0\nsamples = 5\nvalue = [5, 0, 0, 0, 0, 0, 0, 0, 0, 0]"] ;
713 -> 723 ;
724 [label="X[111] <= 0.278\ngini = 0.802\nsamples = 24\nvalue = [1, 1, 3, 1, 2, 0, 0, 8, 3, 5]"] ;
694 -> 724 ;
725 [label="X[191] <= 0.077\ngini = 0.753\nsamples = 19\nvalue = [1, 1, 3, 1, 2, 0, 0, 8, 3, 0]"] ;
724 -> 725 ;
726 [label="X[191] <= -0.03\ngini = 0.793\nsamples = 11\nvalue = [1, 1, 3, 0, 2, 0, 0, 1, 3, 0]"] ;
725 -> 726 ;
727 [label="gini = 0.0\nsamples = 3\nvalue = [0, 0, 0, 0, 0, 0, 0, 0, 3, 0]"] ;
726 -> 727 ;
728 [label="X[103] <= 0.0\ngini = 0.75\nsamples = 8\nvalue = [1, 1, 3, 0, 2, 0, 0, 1, 0, 0]"] ;
726 -> 728 ;
729 [label="X[313] <= 0.631\ngini = 0.72\nsamples = 5\nvalue = [1, 1, 0, 0, 2, 0, 0, 1, 0, 0]"] ;
728 -> 729 ;
730 [label="X[98] <= -0.0\ngini = 0.667\nsamples = 3\nvalue = [1, 1, 0, 0, 0, 0, 0, 1, 0, 0]"] ;
729 -> 730 ;
731 [label="gini = 0.0\nsamples = 1\nvalue = [1, 0, 0, 0, 0, 0, 0, 0, 0, 0]"] ;
730 -> 731 ;
732 [label="X[267] <= 0.044\ngini = 0.5\nsamples = 2\nvalue = [0, 1, 0, 0, 0, 0, 0, 1, 0, 0]"] ;
730 -> 732 ;
733 [label="gini = 0.0\nsamples = 1\nvalue = [0, 1, 0, 0, 0, 0, 0, 0, 0, 0]"] ;
732 -> 733 ;
734 [label="gini = 0.0\nsamples = 1\nvalue = [0, 0, 0, 0, 0, 0, 0, 1, 0, 0]"] ;
732 -> 734 ;
735 [label="gini = 0.0\nsamples = 2\nvalue = [0, 0, 0, 0, 2, 0, 0, 0, 0, 0]"] ;
729 -> 735 ;
736 [label="gini = 0.0\nsamples = 3\nvalue = [0, 0, 3, 0, 0, 0, 0, 0, 0, 0]"] ;
728 -> 736 ;
737 [label="X[228] <= 0.984\ngini = 0.219\nsamples = 8\nvalue = [0, 0, 0, 1, 0, 0, 0, 7, 0, 0]"] ;
725 -> 737 ;
738 [label="gini = 0.0\nsamples = 7\nvalue = [0, 0, 0, 0, 0, 0, 0, 7, 0, 0]"] ;
737 -> 738 ;
739 [label="gini = 0.0\nsamples = 1\nvalue = [0, 0, 0, 1, 0, 0, 0, 0, 0, 0]"] ;
737 -> 739 ;
740 [label="gini = 0.0\nsamples = 5\nvalue = [0, 0, 0, 0, 0, 0, 0, 0, 0, 5]"] ;
724 -> 740 ;
741 [label="X[165] <= 0.001\ngini = 0.667\nsamples = 678\nvalue = [149, 58, 40, 14, 28, 11, 4, 353, 8, 13]"] ;
647 -> 741 ;
742 [label="X[193] <= 0.67\ngini = 0.427\nsamples = 189\nvalue = [139, 6, 2, 5, 0, 1, 1, 33, 0, 2]"] ;
741 -> 742 ;
743 [label="X[283] <= 0.0\ngini = 0.585\nsamples = 42\nvalue = [2, 6, 2, 3, 0, 1, 1, 26, 0, 1]"] ;
742 -> 743 ;
744 [label="X[144] <= 0.29\ngini = 0.82\nsamples = 20\nvalue = [2, 6, 2, 3, 0, 1, 1, 4, 0, 1]"] ;
743 -> 744 ;
745 [label="X[134] <= 0.159\ngini = 0.816\nsamples = 14\nvalue = [2, 0, 2, 3, 0, 1, 1, 4, 0, 1]"] ;
744 -> 745 ;
746 [label="X[192] <= 0.169\ngini = 0.8\nsamples = 10\nvalue = [2, 0, 2, 3, 0, 1, 1, 0, 0, 1]"] ;
745 -> 746 ;
747 [label="gini = 0.0\nsamples = 3\nvalue = [0, 0, 0, 3, 0, 0, 0, 0, 0, 0]"] ;
746 -> 747 ;
748 [label="X[265] <= 0.631\ngini = 0.776\nsamples = 7\nvalue = [2, 0, 2, 0, 0, 1, 1, 0, 0, 1]"] ;
746 -> 748 ;
749 [label="X[188] <= 0.576\ngini = 0.72\nsamples = 5\nvalue = [2, 0, 0, 0, 0, 1, 1, 0, 0, 1]"] ;
748 -> 749 ;
750 [label="gini = 0.0\nsamples = 2\nvalue = [2, 0, 0, 0, 0, 0, 0, 0, 0, 0]"] ;
749 -> 750 ;
751 [label="X[106] <= 0.101\ngini = 0.667\nsamples = 3\nvalue = [0, 0, 0, 0, 0, 1, 1, 0, 0, 1]"] ;
749 -> 751 ;
752 [label="X[233] <= 0.959\ngini = 0.5\nsamples = 2\nvalue = [0, 0, 0, 0, 0, 1, 0, 0, 0, 1]"] ;
751 -> 752 ;
753 [label="gini = 0.0\nsamples = 1\nvalue = [0, 0, 0, 0, 0, 1, 0, 0, 0, 0]"] ;
752 -> 753 ;
754 [label="gini = 0.0\nsamples = 1\nvalue = [0, 0, 0, 0, 0, 0, 0, 0, 0, 1]"] ;
752 -> 754 ;
755 [label="gini = 0.0\nsamples = 1\nvalue = [0, 0, 0, 0, 0, 0, 1, 0, 0, 0]"] ;
751 -> 755 ;
756 [label="gini = 0.0\nsamples = 2\nvalue = [0, 0, 2, 0, 0, 0, 0, 0, 0, 0]"] ;
748 -> 756 ;
757 [label="gini = 0.0\nsamples = 4\nvalue = [0, 0, 0, 0, 0, 0, 0, 4, 0, 0]"] ;
745 -> 757 ;
758 [label="gini = 0.0\nsamples = 6\nvalue = [0, 6, 0, 0, 0, 0, 0, 0, 0, 0]"] ;
744 -> 758 ;
759 [label="gini = 0.0\nsamples = 22\nvalue = [0, 0, 0, 0, 0, 0, 0, 22, 0, 0]"] ;
743 -> 759 ;
760 [label="X[288] <= 0.087\ngini = 0.129\nsamples = 147\nvalue = [137, 0, 0, 2, 0, 0, 0, 7, 0, 1]"] ;
742 -> 760 ;
761 [label="X[312] <= 0.001\ngini = 0.028\nsamples = 139\nvalue = [137, 0, 0, 2, 0, 0, 0, 0, 0, 0]"] ;
760 -> 761 ;
762 [label="gini = 0.0\nsamples = 137\nvalue = [137, 0, 0, 0, 0, 0, 0, 0, 0, 0]"] ;
761 -> 762 ;
763 [label="gini = 0.0\nsamples = 2\nvalue = [0, 0, 0, 2, 0, 0, 0, 0, 0, 0]"] ;
761 -> 763 ;
764 [label="X[145] <= -0.008\ngini = 0.219\nsamples = 8\nvalue = [0, 0, 0, 0, 0, 0, 0, 7, 0, 1]"] ;
760 -> 764 ;
765 [label="gini = 0.0\nsamples = 1\nvalue = [0, 0, 0, 0, 0, 0, 0, 0, 0, 1]"] ;
764 -> 765 ;
766 [label="gini = 0.0\nsamples = 7\nvalue = [0, 0, 0, 0, 0, 0, 0, 7, 0, 0]"] ;
764 -> 766 ;
767 [label="X[169] <= 0.002\ngini = 0.549\nsamples = 489\nvalue = [10, 52, 38, 9, 28, 10, 3, 320, 8, 11]"] ;
741 -> 767 ;
768 [label="X[188] <= 0.217\ngini = 0.66\nsamples = 84\nvalue = [2, 43, 5, 2, 3, 2, 1, 22, 4, 0]"] ;
767 -> 768 ;
769 [label="X[129] <= 0.282\ngini = 0.562\nsamples = 67\nvalue = [0, 43, 5, 2, 2, 2, 1, 8, 4, 0]"] ;
768 -> 769 ;
770 [label="X[234] <= 1.013\ngini = 0.305\nsamples = 52\nvalue = [0, 43, 5, 0, 0, 0, 1, 2, 1, 0]"] ;
769 -> 770 ;
771 [label="X[145] <= 0.079\ngini = 0.226\nsamples = 49\nvalue = [0, 43, 2, 0, 0, 0, 1, 2, 1, 0]"] ;
770 -> 771 ;
772 [label="X[167] <= -0.0\ngini = 0.681\nsamples = 12\nvalue = [0, 6, 2, 0, 0, 0, 1, 2, 1, 0]"] ;
771 -> 772 ;
773 [label="X[212] <= 0.03\ngini = 0.5\nsamples = 4\nvalue = [0, 0, 2, 0, 0, 0, 0, 2, 0, 0]"] ;
772 -> 773 ;
774 [label="gini = 0.0\nsamples = 2\nvalue = [0, 0, 0, 0, 0, 0, 0, 2, 0, 0]"] ;
773 -> 774 ;
775 [label="gini = 0.0\nsamples = 2\nvalue = [0, 0, 2, 0, 0, 0, 0, 0, 0, 0]"] ;
773 -> 775 ;
776 [label="X[133] <= 0.017\ngini = 0.406\nsamples = 8\nvalue = [0, 6, 0, 0, 0, 0, 1, 0, 1, 0]"] ;
772 -> 776 ;
777 [label="X[263] <= 0.221\ngini = 0.5\nsamples = 2\nvalue = [0, 0, 0, 0, 0, 0, 1, 0, 1, 0]"] ;
776 -> 777 ;
778 [label="gini = 0.0\nsamples = 1\nvalue = [0, 0, 0, 0, 0, 0, 1, 0, 0, 0]"] ;
777 -> 778 ;
779 [label="gini = 0.0\nsamples = 1\nvalue = [0, 0, 0, 0, 0, 0, 0, 0, 1, 0]"] ;
777 -> 779 ;
780 [label="gini = 0.0\nsamples = 6\nvalue = [0, 6, 0, 0, 0, 0, 0, 0, 0, 0]"] ;
776 -> 780 ;
781 [label="gini = 0.0\nsamples = 37\nvalue = [0, 37, 0, 0, 0, 0, 0, 0, 0, 0]"] ;
771 -> 781 ;
782 [label="gini = 0.0\nsamples = 3\nvalue = [0, 0, 3, 0, 0, 0, 0, 0, 0, 0]"] ;
770 -> 782 ;
783 [label="X[271] <= 0.176\ngini = 0.747\nsamples = 15\nvalue = [0, 0, 0, 2, 2, 2, 0, 6, 3, 0]"] ;
769 -> 783 ;
784 [label="X[157] <= 0.006\ngini = 0.245\nsamples = 7\nvalue = [0, 0, 0, 0, 0, 0, 0, 6, 1, 0]"] ;
783 -> 784 ;
785 [label="gini = 0.0\nsamples = 1\nvalue = [0, 0, 0, 0, 0, 0, 0, 0, 1, 0]"] ;
784 -> 785 ;
786 [label="gini = 0.0\nsamples = 6\nvalue = [0, 0, 0, 0, 0, 0, 0, 6, 0, 0]"] ;
784 -> 786 ;
787 [label="X[248] <= 0.079\ngini = 0.75\nsamples = 8\nvalue = [0, 0, 0, 2, 2, 2, 0, 0, 2, 0]"] ;
783 -> 787 ;
788 [label="X[85] <= 0.0\ngini = 0.5\nsamples = 4\nvalue = [0, 0, 0, 0, 2, 2, 0, 0, 0, 0]"] ;
787 -> 788 ;
789 [label="gini = 0.0\nsamples = 2\nvalue = [0, 0, 0, 0, 0, 2, 0, 0, 0, 0]"] ;
788 -> 789 ;
790 [label="gini = 0.0\nsamples = 2\nvalue = [0, 0, 0, 0, 2, 0, 0, 0, 0, 0]"] ;
788 -> 790 ;
791 [label="X[156] <= 0.058\ngini = 0.5\nsamples = 4\nvalue = [0, 0, 0, 2, 0, 0, 0, 0, 2, 0]"] ;
787 -> 791 ;
792 [label="gini = 0.0\nsamples = 2\nvalue = [0, 0, 0, 0, 0, 0, 0, 0, 2, 0]"] ;
791 -> 792 ;
793 [label="gini = 0.0\nsamples = 2\nvalue = [0, 0, 0, 2, 0, 0, 0, 0, 0, 0]"] ;
791 -> 793 ;
794 [label="X[205] <= 0.964\ngini = 0.304\nsamples = 17\nvalue = [2, 0, 0, 0, 1, 0, 0, 14, 0, 0]"] ;
768 -> 794 ;
795 [label="gini = 0.0\nsamples = 14\nvalue = [0, 0, 0, 0, 0, 0, 0, 14, 0, 0]"] ;
794 -> 795 ;
796 [label="X[74] <= -0.003\ngini = 0.444\nsamples = 3\nvalue = [2, 0, 0, 0, 1, 0, 0, 0, 0, 0]"] ;
794 -> 796 ;
797 [label="gini = 0.0\nsamples = 1\nvalue = [0, 0, 0, 0, 1, 0, 0, 0, 0, 0]"] ;
796 -> 797 ;
798 [label="gini = 0.0\nsamples = 2\nvalue = [2, 0, 0, 0, 0, 0, 0, 0, 0, 0]"] ;
796 -> 798 ;
799 [label="X[153] <= 0.01\ngini = 0.446\nsamples = 405\nvalue = [8, 9, 33, 7, 25, 8, 2, 298, 4, 11]"] ;
767 -> 799 ;
800 [label="X[148] <= 0.058\ngini = 0.766\nsamples = 75\nvalue = [5, 1, 22, 4, 16, 0, 2, 23, 2, 0]"] ;
799 -> 800 ;
801 [label="X[187] <= 0.567\ngini = 0.497\nsamples = 28\nvalue = [4, 0, 19, 0, 0, 0, 1, 4, 0, 0]"] ;
800 -> 801 ;
802 [label="gini = 0.0\nsamples = 19\nvalue = [0, 0, 19, 0, 0, 0, 0, 0, 0, 0]"] ;
801 -> 802 ;
803 [label="X[286] <= 0.148\ngini = 0.593\nsamples = 9\nvalue = [4, 0, 0, 0, 0, 0, 1, 4, 0, 0]"] ;
801 -> 803 ;
804 [label="X[165] <= 0.734\ngini = 0.32\nsamples = 5\nvalue = [4, 0, 0, 0, 0, 0, 1, 0, 0, 0]"] ;
803 -> 804 ;
805 [label="gini = 0.0\nsamples = 4\nvalue = [4, 0, 0, 0, 0, 0, 0, 0, 0, 0]"] ;
804 -> 805 ;
806 [label="gini = 0.0\nsamples = 1\nvalue = [0, 0, 0, 0, 0, 0, 1, 0, 0, 0]"] ;
804 -> 806 ;
807 [label="gini = 0.0\nsamples = 4\nvalue = [0, 0, 0, 0, 0, 0, 0, 4, 0, 0]"] ;
803 -> 807 ;
808 [label="X[268] <= 0.088\ngini = 0.706\nsamples = 47\nvalue = [1, 1, 3, 4, 16, 0, 1, 19, 2, 0]"] ;
800 -> 808 ;
809 [label="X[207] <= 0.191\ngini = 0.566\nsamples = 24\nvalue = [1, 0, 2, 2, 15, 0, 0, 4, 0, 0]"] ;
808 -> 809 ;
810 [label="X[253] <= -0.025\ngini = 0.133\nsamples = 14\nvalue = [0, 0, 0, 1, 13, 0, 0, 0, 0, 0]"] ;
809 -> 810 ;
811 [label="gini = 0.0\nsamples = 1\nvalue = [0, 0, 0, 1, 0, 0, 0, 0, 0, 0]"] ;
810 -> 811 ;
812 [label="gini = 0.0\nsamples = 13\nvalue = [0, 0, 0, 0, 13, 0, 0, 0, 0, 0]"] ;
810 -> 812 ;
813 [label="X[150] <= 0.812\ngini = 0.74\nsamples = 10\nvalue = [1, 0, 2, 1, 2, 0, 0, 4, 0, 0]"] ;
809 -> 813 ;
814 [label="X[272] <= 0.154\ngini = 0.32\nsamples = 5\nvalue = [1, 0, 0, 0, 0, 0, 0, 4, 0, 0]"] ;
813 -> 814 ;
815 [label="gini = 0.0\nsamples = 1\nvalue = [1, 0, 0, 0, 0, 0, 0, 0, 0, 0]"] ;
814 -> 815 ;
816 [label="gini = 0.0\nsamples = 4\nvalue = [0, 0, 0, 0, 0, 0, 0, 4, 0, 0]"] ;
814 -> 816 ;
817 [label="X[314] <= 0.023\ngini = 0.64\nsamples = 5\nvalue = [0, 0, 2, 1, 2, 0, 0, 0, 0, 0]"] ;
813 -> 817 ;
818 [label="X[197] <= 0.041\ngini = 0.444\nsamples = 3\nvalue = [0, 0, 0, 1, 2, 0, 0, 0, 0, 0]"] ;
817 -> 818 ;
819 [label="gini = 0.0\nsamples = 1\nvalue = [0, 0, 0, 1, 0, 0, 0, 0, 0, 0]"] ;
818 -> 819 ;
820 [label="gini = 0.0\nsamples = 2\nvalue = [0, 0, 0, 0, 2, 0, 0, 0, 0, 0]"] ;
818 -> 820 ;
821 [label="gini = 0.0\nsamples = 2\nvalue = [0, 0, 2, 0, 0, 0, 0, 0, 0, 0]"] ;
817 -> 821 ;
822 [label="X[202] <= -0.033\ngini = 0.552\nsamples = 23\nvalue = [0, 1, 1, 2, 1, 0, 1, 15, 2, 0]"] ;
808 -> 822 ;
823 [label="X[327] <= 0.009\ngini = 0.778\nsamples = 6\nvalue = [0, 1, 1, 2, 0, 0, 1, 0, 1, 0]"] ;
822 -> 823 ;
824 [label="X[169] <= 0.107\ngini = 0.75\nsamples = 4\nvalue = [0, 1, 1, 0, 0, 0, 1, 0, 1, 0]"] ;
823 -> 824 ;
825 [label="gini = 0.0\nsamples = 1\nvalue = [0, 0, 0, 0, 0, 0, 0, 0, 1, 0]"] ;
824 -> 825 ;
826 [label="X[230] <= 0.344\ngini = 0.667\nsamples = 3\nvalue = [0, 1, 1, 0, 0, 0, 1, 0, 0, 0]"] ;
824 -> 826 ;
827 [label="gini = 0.0\nsamples = 1\nvalue = [0, 0, 1, 0, 0, 0, 0, 0, 0, 0]"] ;
826 -> 827 ;
828 [label="X[285] <= -0.018\ngini = 0.5\nsamples = 2\nvalue = [0, 1, 0, 0, 0, 0, 1, 0, 0, 0]"] ;
826 -> 828 ;
829 [label="gini = 0.0\nsamples = 1\nvalue = [0, 0, 0, 0, 0, 0, 1, 0, 0, 0]"] ;
828 -> 829 ;
830 [label="gini = 0.0\nsamples = 1\nvalue = [0, 1, 0, 0, 0, 0, 0, 0, 0, 0]"] ;
828 -> 830 ;
831 [label="gini = 0.0\nsamples = 2\nvalue = [0, 0, 0, 2, 0, 0, 0, 0, 0, 0]"] ;
823 -> 831 ;
832 [label="X[72] <= 0.0\ngini = 0.215\nsamples = 17\nvalue = [0, 0, 0, 0, 1, 0, 0, 15, 1, 0]"] ;
822 -> 832 ;
833 [label="gini = 0.0\nsamples = 15\nvalue = [0, 0, 0, 0, 0, 0, 0, 15, 0, 0]"] ;
832 -> 833 ;
834 [label="X[112] <= 0.046\ngini = 0.5\nsamples = 2\nvalue = [0, 0, 0, 0, 1, 0, 0, 0, 1, 0]"] ;
832 -> 834 ;
835 [label="gini = 0.0\nsamples = 1\nvalue = [0, 0, 0, 0, 0, 0, 0, 0, 1, 0]"] ;
834 -> 835 ;
836 [label="gini = 0.0\nsamples = 1\nvalue = [0, 0, 0, 0, 1, 0, 0, 0, 0, 0]"] ;
834 -> 836 ;
837 [label="X[131] <= 0.498\ngini = 0.301\nsamples = 330\nvalue = [3, 8, 11, 3, 9, 8, 0, 275, 2, 11]"] ;
799 -> 837 ;
838 [label="X[227] <= 0.921\ngini = 0.179\nsamples = 284\nvalue = [3, 6, 9, 1, 4, 2, 0, 257, 1, 1]"] ;
837 -> 838 ;
839 [label="X[353] <= 0.137\ngini = 0.091\nsamples = 257\nvalue = [0, 3, 2, 0, 4, 2, 0, 245, 0, 1]"] ;
838 -> 839 ;
840 [label="X[313] <= -0.034\ngini = 0.076\nsamples = 255\nvalue = [0, 1, 2, 0, 4, 2, 0, 245, 0, 1]"] ;
839 -> 840 ;
841 [label="X[127] <= 0.073\ngini = 0.5\nsamples = 2\nvalue = [0, 1, 1, 0, 0, 0, 0, 0, 0, 0]"] ;
840 -> 841 ;
842 [label="gini = 0.0\nsamples = 1\nvalue = [0, 0, 1, 0, 0, 0, 0, 0, 0, 0]"] ;
841 -> 842 ;
843 [label="gini = 0.0\nsamples = 1\nvalue = [0, 1, 0, 0, 0, 0, 0, 0, 0, 0]"] ;
841 -> 843 ;
844 [label="X[85] <= -0.023\ngini = 0.062\nsamples = 253\nvalue = [0, 0, 1, 0, 4, 2, 0, 245, 0, 1]"] ;
840 -> 844 ;
845 [label="X[315] <= -0.012\ngini = 0.49\nsamples = 7\nvalue = [0, 0, 0, 0, 3, 0, 0, 4, 0, 0]"] ;
844 -> 845 ;
846 [label="gini = 0.0\nsamples = 3\nvalue = [0, 0, 0, 0, 3, 0, 0, 0, 0, 0]"] ;
845 -> 846 ;
847 [label="gini = 0.0\nsamples = 4\nvalue = [0, 0, 0, 0, 0, 0, 0, 4, 0, 0]"] ;
845 -> 847 ;
848 [label="X[152] <= 1.077\ngini = 0.04\nsamples = 246\nvalue = [0, 0, 1, 0, 1, 2, 0, 241, 0, 1]"] ;
844 -> 848 ;
849 [label="X[182] <= 0.154\ngini = 0.032\nsamples = 245\nvalue = [0, 0, 0, 0, 1, 2, 0, 241, 0, 1]"] ;
848 -> 849 ;
850 [label="X[170] <= 1.043\ngini = 0.024\nsamples = 244\nvalue = [0, 0, 0, 0, 0, 2, 0, 241, 0, 1]"] ;
849 -> 850 ;
851 [label="X[186] <= 1.043\ngini = 0.016\nsamples = 243\nvalue = [0, 0, 0, 0, 0, 2, 0, 241, 0, 0]"] ;
850 -> 851 ;
852 [label="X[191] <= -0.062\ngini = 0.008\nsamples = 242\nvalue = [0, 0, 0, 0, 0, 1, 0, 241, 0, 0]"] ;
851 -> 852 ;
853 [label="gini = 0.0\nsamples = 1\nvalue = [0, 0, 0, 0, 0, 1, 0, 0, 0, 0]"] ;
852 -> 853 ;
854 [label="gini = 0.0\nsamples = 241\nvalue = [0, 0, 0, 0, 0, 0, 0, 241, 0, 0]"] ;
852 -> 854 ;
855 [label="gini = 0.0\nsamples = 1\nvalue = [0, 0, 0, 0, 0, 1, 0, 0, 0, 0]"] ;
851 -> 855 ;
856 [label="gini = 0.0\nsamples = 1\nvalue = [0, 0, 0, 0, 0, 0, 0, 0, 0, 1]"] ;
850 -> 856 ;
857 [label="gini = 0.0\nsamples = 1\nvalue = [0, 0, 0, 0, 1, 0, 0, 0, 0, 0]"] ;
849 -> 857 ;
858 [label="gini = 0.0\nsamples = 1\nvalue = [0, 0, 1, 0, 0, 0, 0, 0, 0, 0]"] ;
848 -> 858 ;
859 [label="gini = 0.0\nsamples = 2\nvalue = [0, 2, 0, 0, 0, 0, 0, 0, 0, 0]"] ;
839 -> 859 ;
860 [label="X[147] <= 0.496\ngini = 0.708\nsamples = 27\nvalue = [3, 3, 7, 1, 0, 0, 0, 12, 1, 0]"] ;
838 -> 860 ;
861 [label="X[271] <= 0.362\ngini = 0.653\nsamples = 12\nvalue = [3, 2, 6, 0, 0, 0, 0, 1, 0, 0]"] ;
860 -> 861 ;
862 [label="X[213] <= 0.721\ngini = 0.611\nsamples = 6\nvalue = [3, 2, 0, 0, 0, 0, 0, 1, 0, 0]"] ;
861 -> 862 ;
863 [label="X[201] <= -0.003\ngini = 0.444\nsamples = 3\nvalue = [0, 2, 0, 0, 0, 0, 0, 1, 0, 0]"] ;
862 -> 863 ;
864 [label="gini = 0.0\nsamples = 2\nvalue = [0, 2, 0, 0, 0, 0, 0, 0, 0, 0]"] ;
863 -> 864 ;
865 [label="gini = 0.0\nsamples = 1\nvalue = [0, 0, 0, 0, 0, 0, 0, 1, 0, 0]"] ;
863 -> 865 ;
866 [label="gini = 0.0\nsamples = 3\nvalue = [3, 0, 0, 0, 0, 0, 0, 0, 0, 0]"] ;
862 -> 866 ;
867 [label="gini = 0.0\nsamples = 6\nvalue = [0, 0, 6, 0, 0, 0, 0, 0, 0, 0]"] ;
861 -> 867 ;
868 [label="X[249] <= 0.819\ngini = 0.444\nsamples = 15\nvalue = [0, 1, 1, 1, 0, 0, 0, 11, 1, 0]"] ;
860 -> 868 ;
869 [label="X[176] <= 0.09\ngini = 0.153\nsamples = 12\nvalue = [0, 0, 0, 0, 0, 0, 0, 11, 1, 0]"] ;
868 -> 869 ;
870 [label="gini = 0.0\nsamples = 1\nvalue = [0, 0, 0, 0, 0, 0, 0, 0, 1, 0]"] ;
869 -> 870 ;
871 [label="gini = 0.0\nsamples = 11\nvalue = [0, 0, 0, 0, 0, 0, 0, 11, 0, 0]"] ;
869 -> 871 ;
872 [label="X[247] <= 0.914\ngini = 0.667\nsamples = 3\nvalue = [0, 1, 1, 1, 0, 0, 0, 0, 0, 0]"] ;
868 -> 872 ;
873 [label="gini = 0.0\nsamples = 1\nvalue = [0, 0, 0, 1, 0, 0, 0, 0, 0, 0]"] ;
872 -> 873 ;
874 [label="X[127] <= 0.416\ngini = 0.5\nsamples = 2\nvalue = [0, 1, 1, 0, 0, 0, 0, 0, 0, 0]"] ;
872 -> 874 ;
875 [label="gini = 0.0\nsamples = 1\nvalue = [0, 0, 1, 0, 0, 0, 0, 0, 0, 0]"] ;
874 -> 875 ;
876 [label="gini = 0.0\nsamples = 1\nvalue = [0, 1, 0, 0, 0, 0, 0, 0, 0, 0]"] ;
874 -> 876 ;
877 [label="X[210] <= 0.751\ngini = 0.765\nsamples = 46\nvalue = [0, 2, 2, 2, 5, 6, 0, 18, 1, 10]"] ;
837 -> 877 ;
878 [label="X[245] <= 0.824\ngini = 0.659\nsamples = 19\nvalue = [0, 1, 0, 2, 1, 4, 0, 0, 1, 10]"] ;
877 -> 878 ;
879 [label="X[153] <= 0.5\ngini = 0.716\nsamples = 9\nvalue = [0, 1, 0, 2, 1, 4, 0, 0, 1, 0]"] ;
878 -> 879 ;
880 [label="X[265] <= 0.05\ngini = 0.72\nsamples = 5\nvalue = [0, 1, 0, 2, 1, 0, 0, 0, 1, 0]"] ;
879 -> 880 ;
881 [label="gini = 0.0\nsamples = 2\nvalue = [0, 0, 0, 2, 0, 0, 0, 0, 0, 0]"] ;
880 -> 881 ;
882 [label="X[108] <= -0.025\ngini = 0.667\nsamples = 3\nvalue = [0, 1, 0, 0, 1, 0, 0, 0, 1, 0]"] ;
880 -> 882 ;
883 [label="gini = 0.0\nsamples = 1\nvalue = [0, 0, 0, 0, 0, 0, 0, 0, 1, 0]"] ;
882 -> 883 ;
884 [label="X[350] <= -0.001\ngini = 0.5\nsamples = 2\nvalue = [0, 1, 0, 0, 1, 0, 0, 0, 0, 0]"] ;
882 -> 884 ;
885 [label="gini = 0.0\nsamples = 1\nvalue = [0, 1, 0, 0, 0, 0, 0, 0, 0, 0]"] ;
884 -> 885 ;
886 [label="gini = 0.0\nsamples = 1\nvalue = [0, 0, 0, 0, 1, 0, 0, 0, 0, 0]"] ;
884 -> 886 ;
887 [label="gini = 0.0\nsamples = 4\nvalue = [0, 0, 0, 0, 0, 4, 0, 0, 0, 0]"] ;
879 -> 887 ;
888 [label="gini = 0.0\nsamples = 10\nvalue = [0, 0, 0, 0, 0, 0, 0, 0, 0, 10]"] ;
878 -> 888 ;
889 [label="X[265] <= 1.023\ngini = 0.521\nsamples = 27\nvalue = [0, 1, 2, 0, 4, 2, 0, 18, 0, 0]"] ;
877 -> 889 ;
890 [label="X[267] <= 0.011\ngini = 0.318\nsamples = 22\nvalue = [0, 1, 0, 0, 1, 2, 0, 18, 0, 0]"] ;
889 -> 890 ;
891 [label="X[109] <= -0.025\ngini = 0.444\nsamples = 3\nvalue = [0, 0, 0, 0, 1, 2, 0, 0, 0, 0]"] ;
890 -> 891 ;
892 [label="gini = 0.0\nsamples = 1\nvalue = [0, 0, 0, 0, 1, 0, 0, 0, 0, 0]"] ;
891 -> 892 ;
893 [label="gini = 0.0\nsamples = 2\nvalue = [0, 0, 0, 0, 0, 2, 0, 0, 0, 0]"] ;
891 -> 893 ;
894 [label="X[28] <= 0.0\ngini = 0.1\nsamples = 19\nvalue = [0, 1, 0, 0, 0, 0, 0, 18, 0, 0]"] ;
890 -> 894 ;
895 [label="gini = 0.0\nsamples = 18\nvalue = [0, 0, 0, 0, 0, 0, 0, 18, 0, 0]"] ;
894 -> 895 ;
896 [label="gini = 0.0\nsamples = 1\nvalue = [0, 1, 0, 0, 0, 0, 0, 0, 0, 0]"] ;
894 -> 896 ;
897 [label="X[306] <= -0.008\ngini = 0.48\nsamples = 5\nvalue = [0, 0, 2, 0, 3, 0, 0, 0, 0, 0]"] ;
889 -> 897 ;
898 [label="gini = 0.0\nsamples = 2\nvalue = [0, 0, 2, 0, 0, 0, 0, 0, 0, 0]"] ;
897 -> 898 ;
899 [label="gini = 0.0\nsamples = 3\nvalue = [0, 0, 0, 0, 3, 0, 0, 0, 0, 0]"] ;
897 -> 899 ;
900 [label="X[266] <= 0.004\ngini = 0.688\nsamples = 820\nvalue = [61, 273, 32, 39, 21, 358, 2, 24, 8, 2]"] ;
646 -> 900 ;
901 [label="X[227] <= 0.578\ngini = 0.43\nsamples = 465\nvalue = [23, 47, 3, 18, 18, 346, 1, 8, 1, 0]"] ;
900 -> 901 ;
902 [label="X[305] <= 0.014\ngini = 0.29\nsamples = 409\nvalue = [10, 23, 1, 7, 18, 343, 0, 7, 0, 0]"] ;
901 -> 902 ;
903 [label="X[153] <= 0.013\ngini = 0.187\nsamples = 381\nvalue = [10, 1, 1, 6, 16, 343, 0, 4, 0, 0]"] ;
902 -> 903 ;
904 [label="X[251] <= 0.047\ngini = 0.767\nsamples = 30\nvalue = [10, 0, 1, 4, 8, 5, 0, 2, 0, 0]"] ;
903 -> 904 ;
905 [label="X[290] <= 0.179\ngini = 0.292\nsamples = 12\nvalue = [10, 0, 0, 0, 1, 1, 0, 0, 0, 0]"] ;
904 -> 905 ;
906 [label="gini = 0.0\nsamples = 10\nvalue = [10, 0, 0, 0, 0, 0, 0, 0, 0, 0]"] ;
905 -> 906 ;
907 [label="X[115] <= 0.241\ngini = 0.5\nsamples = 2\nvalue = [0, 0, 0, 0, 1, 1, 0, 0, 0, 0]"] ;
905 -> 907 ;
908 [label="gini = 0.0\nsamples = 1\nvalue = [0, 0, 0, 0, 1, 0, 0, 0, 0, 0]"] ;
907 -> 908 ;
909 [label="gini = 0.0\nsamples = 1\nvalue = [0, 0, 0, 0, 0, 1, 0, 0, 0, 0]"] ;
907 -> 909 ;
910 [label="X[242] <= 0.201\ngini = 0.735\nsamples = 18\nvalue = [0, 0, 1, 4, 7, 4, 0, 2, 0, 0]"] ;
904 -> 910 ;
911 [label="X[224] <= 0.706\ngini = 0.643\nsamples = 14\nvalue = [0, 0, 1, 4, 7, 0, 0, 2, 0, 0]"] ;
910 -> 911 ;
912 [label="X[148] <= 0.166\ngini = 0.571\nsamples = 7\nvalue = [0, 0, 1, 4, 0, 0, 0, 2, 0, 0]"] ;
911 -> 912 ;
913 [label="X[104] <= -0.001\ngini = 0.444\nsamples = 3\nvalue = [0, 0, 1, 0, 0, 0, 0, 2, 0, 0]"] ;
912 -> 913 ;
914 [label="gini = 0.0\nsamples = 1\nvalue = [0, 0, 1, 0, 0, 0, 0, 0, 0, 0]"] ;
913 -> 914 ;
915 [label="gini = 0.0\nsamples = 2\nvalue = [0, 0, 0, 0, 0, 0, 0, 2, 0, 0]"] ;
913 -> 915 ;
916 [label="gini = 0.0\nsamples = 4\nvalue = [0, 0, 0, 4, 0, 0, 0, 0, 0, 0]"] ;
912 -> 916 ;
917 [label="gini = 0.0\nsamples = 7\nvalue = [0, 0, 0, 0, 7, 0, 0, 0, 0, 0]"] ;
911 -> 917 ;
918 [label="gini = 0.0\nsamples = 4\nvalue = [0, 0, 0, 0, 0, 4, 0, 0, 0, 0]"] ;
910 -> 918 ;
919 [label="X[343] <= 0.158\ngini = 0.072\nsamples = 351\nvalue = [0, 1, 0, 2, 8, 338, 0, 2, 0, 0]"] ;
903 -> 919 ;
920 [label="X[257] <= 0.027\ngini = 0.056\nsamples = 348\nvalue = [0, 1, 0, 2, 5, 338, 0, 2, 0, 0]"] ;
919 -> 920 ;
921 [label="X[195] <= 1.088\ngini = 0.035\nsamples = 343\nvalue = [0, 1, 0, 0, 4, 337, 0, 1, 0, 0]"] ;
920 -> 921 ;
922 [label="X[121] <= 0.0\ngini = 0.023\nsamples = 341\nvalue = [0, 1, 0, 0, 2, 337, 0, 1, 0, 0]"] ;
921 -> 922 ;
923 [label="X[51] <= 0.0\ngini = 0.012\nsamples = 338\nvalue = [0, 1, 0, 0, 0, 336, 0, 1, 0, 0]"] ;
922 -> 923 ;
924 [label="X[270] <= -0.052\ngini = 0.006\nsamples = 337\nvalue = [0, 0, 0, 0, 0, 336, 0, 1, 0, 0]"] ;
923 -> 924 ;
925 [label="X[143] <= 0.097\ngini = 0.444\nsamples = 3\nvalue = [0, 0, 0, 0, 0, 2, 0, 1, 0, 0]"] ;
924 -> 925 ;
926 [label="gini = 0.0\nsamples = 2\nvalue = [0, 0, 0, 0, 0, 2, 0, 0, 0, 0]"] ;
925 -> 926 ;
927 [label="gini = 0.0\nsamples = 1\nvalue = [0, 0, 0, 0, 0, 0, 0, 1, 0, 0]"] ;
925 -> 927 ;
928 [label="gini = 0.0\nsamples = 334\nvalue = [0, 0, 0, 0, 0, 334, 0, 0, 0, 0]"] ;
924 -> 928 ;
929 [label="gini = 0.0\nsamples = 1\nvalue = [0, 1, 0, 0, 0, 0, 0, 0, 0, 0]"] ;
923 -> 929 ;
930 [label="X[122] <= 0.003\ngini = 0.444\nsamples = 3\nvalue = [0, 0, 0, 0, 2, 1, 0, 0, 0, 0]"] ;
922 -> 930 ;
931 [label="gini = 0.0\nsamples = 2\nvalue = [0, 0, 0, 0, 2, 0, 0, 0, 0, 0]"] ;
930 -> 931 ;
932 [label="gini = 0.0\nsamples = 1\nvalue = [0, 0, 0, 0, 0, 1, 0, 0, 0, 0]"] ;
930 -> 932 ;
933 [label="gini = 0.0\nsamples = 2\nvalue = [0, 0, 0, 0, 2, 0, 0, 0, 0, 0]"] ;
921 -> 933 ;
934 [label="X[295] <= 0.406\ngini = 0.72\nsamples = 5\nvalue = [0, 0, 0, 2, 1, 1, 0, 1, 0, 0]"] ;
920 -> 934 ;
935 [label="gini = 0.0\nsamples = 2\nvalue = [0, 0, 0, 2, 0, 0, 0, 0, 0, 0]"] ;
934 -> 935 ;
936 [label="X[131] <= 0.028\ngini = 0.667\nsamples = 3\nvalue = [0, 0, 0, 0, 1, 1, 0, 1, 0, 0]"] ;
934 -> 936 ;
937 [label="gini = 0.0\nsamples = 1\nvalue = [0, 0, 0, 0, 0, 0, 0, 1, 0, 0]"] ;
936 -> 937 ;
938 [label="X[153] <= 0.871\ngini = 0.5\nsamples = 2\nvalue = [0, 0, 0, 0, 1, 1, 0, 0, 0, 0]"] ;
936 -> 938 ;
939 [label="gini = 0.0\nsamples = 1\nvalue = [0, 0, 0, 0, 0, 1, 0, 0, 0, 0]"] ;
938 -> 939 ;
940 [label="gini = 0.0\nsamples = 1\nvalue = [0, 0, 0, 0, 1, 0, 0, 0, 0, 0]"] ;
938 -> 940 ;
941 [label="gini = 0.0\nsamples = 3\nvalue = [0, 0, 0, 0, 3, 0, 0, 0, 0, 0]"] ;
919 -> 941 ;
942 [label="X[223] <= 0.104\ngini = 0.365\nsamples = 28\nvalue = [0, 22, 0, 1, 2, 0, 0, 3, 0, 0]"] ;
902 -> 942 ;
943 [label="X[229] <= 0.897\ngini = 0.64\nsamples = 5\nvalue = [0, 0, 0, 1, 2, 0, 0, 2, 0, 0]"] ;
942 -> 943 ;
944 [label="X[273] <= -0.0\ngini = 0.444\nsamples = 3\nvalue = [0, 0, 0, 1, 0, 0, 0, 2, 0, 0]"] ;
943 -> 944 ;
945 [label="gini = 0.0\nsamples = 1\nvalue = [0, 0, 0, 1, 0, 0, 0, 0, 0, 0]"] ;
944 -> 945 ;
946 [label="gini = 0.0\nsamples = 2\nvalue = [0, 0, 0, 0, 0, 0, 0, 2, 0, 0]"] ;
944 -> 946 ;
947 [label="gini = 0.0\nsamples = 2\nvalue = [0, 0, 0, 0, 2, 0, 0, 0, 0, 0]"] ;
943 -> 947 ;
948 [label="X[167] <= 0.839\ngini = 0.083\nsamples = 23\nvalue = [0, 22, 0, 0, 0, 0, 0, 1, 0, 0]"] ;
942 -> 948 ;
949 [label="gini = 0.0\nsamples = 22\nvalue = [0, 22, 0, 0, 0, 0, 0, 0, 0, 0]"] ;
948 -> 949 ;
950 [label="gini = 0.0\nsamples = 1\nvalue = [0, 0, 0, 0, 0, 0, 0, 1, 0, 0]"] ;
948 -> 950 ;
951 [label="X[183] <= 0.004\ngini = 0.719\nsamples = 56\nvalue = [13, 24, 2, 11, 0, 3, 1, 1, 1, 0]"] ;
901 -> 951 ;
952 [label="X[175] <= 0.069\ngini = 0.632\nsamples = 24\nvalue = [9, 0, 0, 11, 0, 3, 0, 1, 0, 0]"] ;
951 -> 952 ;
953 [label="gini = 0.0\nsamples = 11\nvalue = [0, 0, 0, 11, 0, 0, 0, 0, 0, 0]"] ;
952 -> 953 ;
954 [label="X[189] <= 0.647\ngini = 0.462\nsamples = 13\nvalue = [9, 0, 0, 0, 0, 3, 0, 1, 0, 0]"] ;
952 -> 954 ;
955 [label="gini = 0.0\nsamples = 9\nvalue = [9, 0, 0, 0, 0, 0, 0, 0, 0, 0]"] ;
954 -> 955 ;
956 [label="X[194] <= 0.91\ngini = 0.375\nsamples = 4\nvalue = [0, 0, 0, 0, 0, 3, 0, 1, 0, 0]"] ;
954 -> 956 ;
957 [label="gini = 0.0\nsamples = 1\nvalue = [0, 0, 0, 0, 0, 0, 0, 1, 0, 0]"] ;
956 -> 957 ;
958 [label="gini = 0.0\nsamples = 3\nvalue = [0, 0, 0, 0, 0, 3, 0, 0, 0, 0]"] ;
956 -> 958 ;
959 [label="X[173] <= 0.043\ngini = 0.416\nsamples = 32\nvalue = [4, 24, 2, 0, 0, 0, 1, 0, 1, 0]"] ;
951 -> 959 ;
960 [label="X[246] <= 0.304\ngini = 0.691\nsamples = 9\nvalue = [4, 2, 2, 0, 0, 0, 0, 0, 1, 0]"] ;
959 -> 960 ;
961 [label="gini = 0.0\nsamples = 4\nvalue = [4, 0, 0, 0, 0, 0, 0, 0, 0, 0]"] ;
960 -> 961 ;
962 [label="X[64] <= -0.001\ngini = 0.64\nsamples = 5\nvalue = [0, 2, 2, 0, 0, 0, 0, 0, 1, 0]"] ;
960 -> 962 ;
963 [label="gini = 0.0\nsamples = 2\nvalue = [0, 0, 2, 0, 0, 0, 0, 0, 0, 0]"] ;
962 -> 963 ;
964 [label="X[274] <= 0.722\ngini = 0.444\nsamples = 3\nvalue = [0, 2, 0, 0, 0, 0, 0, 0, 1, 0]"] ;
962 -> 964 ;
965 [label="gini = 0.0\nsamples = 2\nvalue = [0, 2, 0, 0, 0, 0, 0, 0, 0, 0]"] ;
964 -> 965 ;
966 [label="gini = 0.0\nsamples = 1\nvalue = [0, 0, 0, 0, 0, 0, 0, 0, 1, 0]"] ;
964 -> 966 ;
967 [label="X[236] <= 0.446\ngini = 0.083\nsamples = 23\nvalue = [0, 22, 0, 0, 0, 0, 1, 0, 0, 0]"] ;
959 -> 967 ;
